digraph Tree {
node [shape=box] ;
0 [label="velvet <= 0.0\ngini = 0.5\nsamples = 6000\nvalue = [3000, 3000]\nclass = female"] ;
1 [label="ballplayer <= 0.001\ngini = 0.472\nsamples = 3403\nvalue = [1299, 2104]\nclass = male"] ;
0 -> 1 [labeldistance=2.5, labelangle=45, headlabel="True"] ;
2 [label="maillot <= 0.001\ngini = 0.492\nsamples = 2325\nvalue = [1016, 1309]\nclass = male"] ;
1 -> 2 ;
3 [label="military_uniform <= 0.0\ngini = 0.472\nsamples = 1630\nvalue = [622, 1008]\nclass = male"] ;
2 -> 3 ;
4 [label="bonnet <= 0.0\ngini = 0.497\nsamples = 368\nvalue = [199, 169]\nclass = female"] ;
3 -> 4 ;
5 [label="red_wine <= 0.0\ngini = 0.494\nsamples = 242\nvalue = [108, 134]\nclass = male"] ;
4 -> 5 ;
6 [label="barbershop <= 0.0\ngini = 0.432\nsamples = 127\nvalue = [40, 87]\nclass = male"] ;
5 -> 6 ;
7 [label="mountain_bike <= 0.0\ngini = 0.26\nsamples = 13\nvalue = [11, 2]\nclass = female"] ;
6 -> 7 ;
8 [label="gini = 0.0\nsamples = 11\nvalue = [11, 0]\nclass = female"] ;
7 -> 8 ;
9 [label="gini = 0.0\nsamples = 2\nvalue = [0, 2]\nclass = male"] ;
7 -> 9 ;
10 [label="steel_arch_bridge <= 0.0\ngini = 0.379\nsamples = 114\nvalue = [29, 85]\nclass = male"] ;
6 -> 10 ;
11 [label="horizontal_bar <= 0.002\ngini = 0.273\nsamples = 92\nvalue = [15, 77]\nclass = male"] ;
10 -> 11 ;
12 [label="barrow <= 0.0\ngini = 0.233\nsamples = 89\nvalue = [12, 77]\nclass = male"] ;
11 -> 12 ;
13 [label="mousetrap <= 0.001\ngini = 0.32\nsamples = 5\nvalue = [4, 1]\nclass = female"] ;
12 -> 13 ;
14 [label="gini = 0.0\nsamples = 4\nvalue = [4, 0]\nclass = female"] ;
13 -> 14 ;
15 [label="gini = 0.0\nsamples = 1\nvalue = [0, 1]\nclass = male"] ;
13 -> 15 ;
16 [label="jean <= 0.006\ngini = 0.172\nsamples = 84\nvalue = [8, 76]\nclass = male"] ;
12 -> 16 ;
17 [label="steam_locomotive <= 0.003\ngini = 0.117\nsamples = 80\nvalue = [5, 75]\nclass = male"] ;
16 -> 17 ;
18 [label="laptop <= 0.022\ngini = 0.075\nsamples = 77\nvalue = [3, 74]\nclass = male"] ;
17 -> 18 ;
19 [label="bucket <= 0.004\ngini = 0.027\nsamples = 74\nvalue = [1, 73]\nclass = male"] ;
18 -> 19 ;
20 [label="gini = 0.0\nsamples = 73\nvalue = [0, 73]\nclass = male"] ;
19 -> 20 ;
21 [label="gini = 0.0\nsamples = 1\nvalue = [1, 0]\nclass = female"] ;
19 -> 21 ;
22 [label="scabbard <= 0.0\ngini = 0.444\nsamples = 3\nvalue = [2, 1]\nclass = female"] ;
18 -> 22 ;
23 [label="gini = 0.0\nsamples = 1\nvalue = [0, 1]\nclass = male"] ;
22 -> 23 ;
24 [label="gini = 0.0\nsamples = 2\nvalue = [2, 0]\nclass = female"] ;
22 -> 24 ;
25 [label="gorilla <= 0.0\ngini = 0.444\nsamples = 3\nvalue = [2, 1]\nclass = female"] ;
17 -> 25 ;
26 [label="gini = 0.0\nsamples = 1\nvalue = [0, 1]\nclass = male"] ;
25 -> 26 ;
27 [label="gini = 0.0\nsamples = 2\nvalue = [2, 0]\nclass = female"] ;
25 -> 27 ;
28 [label="alp <= 0.002\ngini = 0.375\nsamples = 4\nvalue = [3, 1]\nclass = female"] ;
16 -> 28 ;
29 [label="gini = 0.0\nsamples = 3\nvalue = [3, 0]\nclass = female"] ;
28 -> 29 ;
30 [label="gini = 0.0\nsamples = 1\nvalue = [0, 1]\nclass = male"] ;
28 -> 30 ;
31 [label="gini = 0.0\nsamples = 3\nvalue = [3, 0]\nclass = female"] ;
11 -> 31 ;
32 [label="digital_clock <= 0.0\ngini = 0.463\nsamples = 22\nvalue = [14, 8]\nclass = female"] ;
10 -> 32 ;
33 [label="gini = 0.0\nsamples = 11\nvalue = [11, 0]\nclass = female"] ;
32 -> 33 ;
34 [label="cash_machine <= 0.001\ngini = 0.397\nsamples = 11\nvalue = [3, 8]\nclass = male"] ;
32 -> 34 ;
35 [label="gini = 0.0\nsamples = 8\nvalue = [0, 8]\nclass = male"] ;
34 -> 35 ;
36 [label="gini = 0.0\nsamples = 3\nvalue = [3, 0]\nclass = female"] ;
34 -> 36 ;
37 [label="slot <= 0.0\ngini = 0.483\nsamples = 115\nvalue = [68, 47]\nclass = female"] ;
5 -> 37 ;
38 [label="soccer_ball <= 0.0\ngini = 0.398\nsamples = 73\nvalue = [53, 20]\nclass = female"] ;
37 -> 38 ;
39 [label="hog <= 0.0\ngini = 0.5\nsamples = 35\nvalue = [18, 17]\nclass = female"] ;
38 -> 39 ;
40 [label="bull_mastiff <= 0.0\ngini = 0.142\nsamples = 13\nvalue = [12, 1]\nclass = female"] ;
39 -> 40 ;
41 [label="gini = 0.0\nsamples = 12\nvalue = [12, 0]\nclass = female"] ;
40 -> 41 ;
42 [label="gini = 0.0\nsamples = 1\nvalue = [0, 1]\nclass = male"] ;
40 -> 42 ;
43 [label="home_theater <= 0.0\ngini = 0.397\nsamples = 22\nvalue = [6, 16]\nclass = male"] ;
39 -> 43 ;
44 [label="soap_dispenser <= 0.0\ngini = 0.375\nsamples = 8\nvalue = [6, 2]\nclass = female"] ;
43 -> 44 ;
45 [label="gini = 0.0\nsamples = 2\nvalue = [0, 2]\nclass = male"] ;
44 -> 45 ;
46 [label="gini = 0.0\nsamples = 6\nvalue = [6, 0]\nclass = female"] ;
44 -> 46 ;
47 [label="gini = 0.0\nsamples = 14\nvalue = [0, 14]\nclass = male"] ;
43 -> 47 ;
48 [label="printer <= 0.002\ngini = 0.145\nsamples = 38\nvalue = [35, 3]\nclass = female"] ;
38 -> 48 ;
49 [label="gini = 0.0\nsamples = 34\nvalue = [34, 0]\nclass = female"] ;
48 -> 49 ;
50 [label="barrow <= 0.0\ngini = 0.375\nsamples = 4\nvalue = [1, 3]\nclass = male"] ;
48 -> 50 ;
51 [label="gini = 0.0\nsamples = 1\nvalue = [1, 0]\nclass = female"] ;
50 -> 51 ;
52 [label="gini = 0.0\nsamples = 3\nvalue = [0, 3]\nclass = male"] ;
50 -> 52 ;
53 [label="folding_chair <= 0.0\ngini = 0.459\nsamples = 42\nvalue = [15, 27]\nclass = male"] ;
37 -> 53 ;
54 [label="gini = 0.0\nsamples = 14\nvalue = [0, 14]\nclass = male"] ;
53 -> 54 ;
55 [label="lifeboat <= 0.0\ngini = 0.497\nsamples = 28\nvalue = [15, 13]\nclass = female"] ;
53 -> 55 ;
56 [label="gini = 0.0\nsamples = 12\nvalue = [12, 0]\nclass = female"] ;
55 -> 56 ;
57 [label="mailbag <= 0.0\ngini = 0.305\nsamples = 16\nvalue = [3, 13]\nclass = male"] ;
55 -> 57 ;
58 [label="gini = 0.0\nsamples = 3\nvalue = [3, 0]\nclass = female"] ;
57 -> 58 ;
59 [label="gini = 0.0\nsamples = 13\nvalue = [0, 13]\nclass = male"] ;
57 -> 59 ;
60 [label="spotlight <= 0.0\ngini = 0.401\nsamples = 126\nvalue = [91, 35]\nclass = female"] ;
4 -> 60 ;
61 [label="steam_locomotive <= 0.001\ngini = 0.15\nsamples = 61\nvalue = [56, 5]\nclass = female"] ;
60 -> 61 ;
62 [label="pick <= 0.0\ngini = 0.067\nsamples = 58\nvalue = [56, 2]\nclass = female"] ;
61 -> 62 ;
63 [label="gini = 0.0\nsamples = 1\nvalue = [0, 1]\nclass = male"] ;
62 -> 63 ;
64 [label="ice_cream <= 0.0\ngini = 0.034\nsamples = 57\nvalue = [56, 1]\nclass = female"] ;
62 -> 64 ;
65 [label="gini = 0.0\nsamples = 1\nvalue = [0, 1]\nclass = male"] ;
64 -> 65 ;
66 [label="gini = 0.0\nsamples = 56\nvalue = [56, 0]\nclass = female"] ;
64 -> 66 ;
67 [label="gini = 0.0\nsamples = 3\nvalue = [0, 3]\nclass = male"] ;
61 -> 67 ;
68 [label="syringe <= 0.001\ngini = 0.497\nsamples = 65\nvalue = [35, 30]\nclass = female"] ;
60 -> 68 ;
69 [label="jean <= 0.0\ngini = 0.444\nsamples = 33\nvalue = [11, 22]\nclass = male"] ;
68 -> 69 ;
70 [label="gini = 0.0\nsamples = 6\nvalue = [6, 0]\nclass = female"] ;
69 -> 70 ;
71 [label="digital_clock <= 0.001\ngini = 0.302\nsamples = 27\nvalue = [5, 22]\nclass = male"] ;
69 -> 71 ;
72 [label="chime <= 0.0\ngini = 0.087\nsamples = 22\nvalue = [1, 21]\nclass = male"] ;
71 -> 72 ;
73 [label="gini = 0.0\nsamples = 1\nvalue = [1, 0]\nclass = female"] ;
72 -> 73 ;
74 [label="gini = 0.0\nsamples = 21\nvalue = [0, 21]\nclass = male"] ;
72 -> 74 ;
75 [label="pop_bottle <= 0.001\ngini = 0.32\nsamples = 5\nvalue = [4, 1]\nclass = female"] ;
71 -> 75 ;
76 [label="gini = 0.0\nsamples = 4\nvalue = [4, 0]\nclass = female"] ;
75 -> 76 ;
77 [label="gini = 0.0\nsamples = 1\nvalue = [0, 1]\nclass = male"] ;
75 -> 77 ;
78 [label="wig <= 0.0\ngini = 0.375\nsamples = 32\nvalue = [24, 8]\nclass = female"] ;
68 -> 78 ;
79 [label="pelican <= 0.0\ngini = 0.42\nsamples = 10\nvalue = [3, 7]\nclass = male"] ;
78 -> 79 ;
80 [label="gini = 0.0\nsamples = 7\nvalue = [0, 7]\nclass = male"] ;
79 -> 80 ;
81 [label="gini = 0.0\nsamples = 3\nvalue = [3, 0]\nclass = female"] ;
79 -> 81 ;
82 [label="monarch <= 0.0\ngini = 0.087\nsamples = 22\nvalue = [21, 1]\nclass = female"] ;
78 -> 82 ;
83 [label="gini = 0.0\nsamples = 21\nvalue = [21, 0]\nclass = female"] ;
82 -> 83 ;
84 [label="gini = 0.0\nsamples = 1\nvalue = [0, 1]\nclass = male"] ;
82 -> 84 ;
85 [label="tabby <= 0.0\ngini = 0.446\nsamples = 1262\nvalue = [423, 839]\nclass = male"] ;
3 -> 85 ;
86 [label="barrow <= 0.0\ngini = 0.407\nsamples = 878\nvalue = [250, 628]\nclass = male"] ;
85 -> 86 ;
87 [label="Yorkshire_terrier <= 0.0\ngini = 0.356\nsamples = 595\nvalue = [138, 457]\nclass = male"] ;
86 -> 87 ;
88 [label="confectionery <= 0.036\ngini = 0.308\nsamples = 490\nvalue = [93, 397]\nclass = male"] ;
87 -> 88 ;
89 [label="gar <= 0.0\ngini = 0.297\nsamples = 485\nvalue = [88, 397]\nclass = male"] ;
88 -> 89 ;
90 [label="diamondback <= 0.0\ngini = 0.4\nsamples = 199\nvalue = [55, 144]\nclass = male"] ;
89 -> 90 ;
91 [label="eggnog <= 0.003\ngini = 0.323\nsamples = 158\nvalue = [32, 126]\nclass = male"] ;
90 -> 91 ;
92 [label="otter <= 0.0\ngini = 0.291\nsamples = 153\nvalue = [27, 126]\nclass = male"] ;
91 -> 92 ;
93 [label="agama <= 0.0\ngini = 0.261\nsamples = 149\nvalue = [23, 126]\nclass = male"] ;
92 -> 93 ;
94 [label="can_opener <= 0.001\ngini = 0.236\nsamples = 146\nvalue = [20, 126]\nclass = male"] ;
93 -> 94 ;
95 [label="notebook <= 0.024\ngini = 0.179\nsamples = 131\nvalue = [13, 118]\nclass = male"] ;
94 -> 95 ;
96 [label="sliding_door <= 0.009\ngini = 0.145\nsamples = 127\nvalue = [10, 117]\nclass = male"] ;
95 -> 96 ;
97 [label="American_egret <= 0.0\ngini = 0.12\nsamples = 125\nvalue = [8, 117]\nclass = male"] ;
96 -> 97 ;
98 [label="toilet_seat <= 0.0\ngini = 0.444\nsamples = 3\nvalue = [2, 1]\nclass = female"] ;
97 -> 98 ;
99 [label="gini = 0.0\nsamples = 1\nvalue = [0, 1]\nclass = male"] ;
98 -> 99 ;
100 [label="gini = 0.0\nsamples = 2\nvalue = [2, 0]\nclass = female"] ;
98 -> 100 ;
101 [label="promontory <= 0.01\ngini = 0.094\nsamples = 122\nvalue = [6, 116]\nclass = male"] ;
97 -> 101 ;
102 [label="crate <= 0.003\ngini = 0.065\nsamples = 119\nvalue = [4, 115]\nclass = male"] ;
101 -> 102 ;
103 [label="pickup <= 0.01\ngini = 0.018\nsamples = 112\nvalue = [1, 111]\nclass = male"] ;
102 -> 103 ;
104 [label="gini = 0.0\nsamples = 111\nvalue = [0, 111]\nclass = male"] ;
103 -> 104 ;
105 [label="gini = 0.0\nsamples = 1\nvalue = [1, 0]\nclass = female"] ;
103 -> 105 ;
106 [label="Cardigan <= 0.0\ngini = 0.49\nsamples = 7\nvalue = [3, 4]\nclass = male"] ;
102 -> 106 ;
107 [label="gini = 0.0\nsamples = 4\nvalue = [0, 4]\nclass = male"] ;
106 -> 107 ;
108 [label="gini = 0.0\nsamples = 3\nvalue = [3, 0]\nclass = female"] ;
106 -> 108 ;
109 [label="Chesapeake_Bay_retriever <= 0.0\ngini = 0.444\nsamples = 3\nvalue = [2, 1]\nclass = female"] ;
101 -> 109 ;
110 [label="gini = 0.0\nsamples = 1\nvalue = [0, 1]\nclass = male"] ;
109 -> 110 ;
111 [label="gini = 0.0\nsamples = 2\nvalue = [2, 0]\nclass = female"] ;
109 -> 111 ;
112 [label="gini = 0.0\nsamples = 2\nvalue = [2, 0]\nclass = female"] ;
96 -> 112 ;
113 [label="orangutan <= 0.0\ngini = 0.375\nsamples = 4\nvalue = [3, 1]\nclass = female"] ;
95 -> 113 ;
114 [label="gini = 0.0\nsamples = 3\nvalue = [3, 0]\nclass = female"] ;
113 -> 114 ;
115 [label="gini = 0.0\nsamples = 1\nvalue = [0, 1]\nclass = male"] ;
113 -> 115 ;
116 [label="koala <= 0.0\ngini = 0.498\nsamples = 15\nvalue = [7, 8]\nclass = male"] ;
94 -> 116 ;
117 [label="gini = 0.0\nsamples = 6\nvalue = [6, 0]\nclass = female"] ;
116 -> 117 ;
118 [label="face_powder <= 0.02\ngini = 0.198\nsamples = 9\nvalue = [1, 8]\nclass = male"] ;
116 -> 118 ;
119 [label="gini = 0.0\nsamples = 8\nvalue = [0, 8]\nclass = male"] ;
118 -> 119 ;
120 [label="gini = 0.0\nsamples = 1\nvalue = [1, 0]\nclass = female"] ;
118 -> 120 ;
121 [label="gini = 0.0\nsamples = 3\nvalue = [3, 0]\nclass = female"] ;
93 -> 121 ;
122 [label="gini = 0.0\nsamples = 4\nvalue = [4, 0]\nclass = female"] ;
92 -> 122 ;
123 [label="gini = 0.0\nsamples = 5\nvalue = [5, 0]\nclass = female"] ;
91 -> 123 ;
124 [label="Bouvier_des_Flandres <= 0.0\ngini = 0.493\nsamples = 41\nvalue = [23, 18]\nclass = female"] ;
90 -> 124 ;
125 [label="carton <= 0.001\ngini = 0.32\nsamples = 25\nvalue = [20, 5]\nclass = female"] ;
124 -> 125 ;
126 [label="hare <= 0.0\ngini = 0.32\nsamples = 5\nvalue = [1, 4]\nclass = male"] ;
125 -> 126 ;
127 [label="gini = 0.0\nsamples = 4\nvalue = [0, 4]\nclass = male"] ;
126 -> 127 ;
128 [label="gini = 0.0\nsamples = 1\nvalue = [1, 0]\nclass = female"] ;
126 -> 128 ;
129 [label="maypole <= 0.0\ngini = 0.095\nsamples = 20\nvalue = [19, 1]\nclass = female"] ;
125 -> 129 ;
130 [label="gini = 0.0\nsamples = 1\nvalue = [0, 1]\nclass = male"] ;
129 -> 130 ;
131 [label="gini = 0.0\nsamples = 19\nvalue = [19, 0]\nclass = female"] ;
129 -> 131 ;
132 [label="pinwheel <= 0.0\ngini = 0.305\nsamples = 16\nvalue = [3, 13]\nclass = male"] ;
124 -> 132 ;
133 [label="gini = 0.0\nsamples = 3\nvalue = [3, 0]\nclass = female"] ;
132 -> 133 ;
134 [label="gini = 0.0\nsamples = 13\nvalue = [0, 13]\nclass = male"] ;
132 -> 134 ;
135 [label="library <= 0.0\ngini = 0.204\nsamples = 286\nvalue = [33, 253]\nclass = male"] ;
89 -> 135 ;
136 [label="kuvasz <= 0.0\ngini = 0.32\nsamples = 5\nvalue = [4, 1]\nclass = female"] ;
135 -> 136 ;
137 [label="gini = 0.0\nsamples = 1\nvalue = [0, 1]\nclass = male"] ;
136 -> 137 ;
138 [label="gini = 0.0\nsamples = 4\nvalue = [4, 0]\nclass = female"] ;
136 -> 138 ;
139 [label="letter_opener <= 0.015\ngini = 0.185\nsamples = 281\nvalue = [29, 252]\nclass = male"] ;
135 -> 139 ;
140 [label="apron <= 0.001\ngini = 0.17\nsamples = 278\nvalue = [26, 252]\nclass = male"] ;
139 -> 140 ;
141 [label="digital_watch <= 0.006\ngini = 0.101\nsamples = 226\nvalue = [12, 214]\nclass = male"] ;
140 -> 141 ;
142 [label="marmot <= 0.002\ngini = 0.085\nsamples = 224\nvalue = [10, 214]\nclass = male"] ;
141 -> 142 ;
143 [label="ambulance <= 0.036\ngini = 0.069\nsamples = 222\nvalue = [8, 214]\nclass = male"] ;
142 -> 143 ;
144 [label="balance_beam <= 0.036\ngini = 0.053\nsamples = 220\nvalue = [6, 214]\nclass = male"] ;
143 -> 144 ;
145 [label="tiger_shark <= 0.004\ngini = 0.045\nsamples = 219\nvalue = [5, 214]\nclass = male"] ;
144 -> 145 ;
146 [label="envelope <= 0.137\ngini = 0.036\nsamples = 218\nvalue = [4, 214]\nclass = male"] ;
145 -> 146 ;
147 [label="pretzel <= 0.05\ngini = 0.027\nsamples = 217\nvalue = [3, 214]\nclass = male"] ;
146 -> 147 ;
148 [label="water_buffalo <= 0.017\ngini = 0.018\nsamples = 216\nvalue = [2, 214]\nclass = male"] ;
147 -> 148 ;
149 [label="valley <= 0.058\ngini = 0.009\nsamples = 215\nvalue = [1, 214]\nclass = male"] ;
148 -> 149 ;
150 [label="gini = 0.0\nsamples = 214\nvalue = [0, 214]\nclass = male"] ;
149 -> 150 ;
151 [label="gini = 0.0\nsamples = 1\nvalue = [1, 0]\nclass = female"] ;
149 -> 151 ;
152 [label="gini = 0.0\nsamples = 1\nvalue = [1, 0]\nclass = female"] ;
148 -> 152 ;
153 [label="gini = 0.0\nsamples = 1\nvalue = [1, 0]\nclass = female"] ;
147 -> 153 ;
154 [label="gini = 0.0\nsamples = 1\nvalue = [1, 0]\nclass = female"] ;
146 -> 154 ;
155 [label="gini = 0.0\nsamples = 1\nvalue = [1, 0]\nclass = female"] ;
145 -> 155 ;
156 [label="gini = 0.0\nsamples = 1\nvalue = [1, 0]\nclass = female"] ;
144 -> 156 ;
157 [label="gini = 0.0\nsamples = 2\nvalue = [2, 0]\nclass = female"] ;
143 -> 157 ;
158 [label="gini = 0.0\nsamples = 2\nvalue = [2, 0]\nclass = female"] ;
142 -> 158 ;
159 [label="gini = 0.0\nsamples = 2\nvalue = [2, 0]\nclass = female"] ;
141 -> 159 ;
160 [label="gondola <= 0.001\ngini = 0.393\nsamples = 52\nvalue = [14, 38]\nclass = male"] ;
140 -> 160 ;
161 [label="bullet_train <= 0.0\ngini = 0.287\nsamples = 46\nvalue = [8, 38]\nclass = male"] ;
160 -> 161 ;
162 [label="gini = 0.0\nsamples = 4\nvalue = [4, 0]\nclass = female"] ;
161 -> 162 ;
163 [label="ant <= 0.0\ngini = 0.172\nsamples = 42\nvalue = [4, 38]\nclass = male"] ;
161 -> 163 ;
164 [label="shoe_shop <= 0.004\ngini = 0.49\nsamples = 7\nvalue = [4, 3]\nclass = female"] ;
163 -> 164 ;
165 [label="gini = 0.0\nsamples = 4\nvalue = [4, 0]\nclass = female"] ;
164 -> 165 ;
166 [label="gini = 0.0\nsamples = 3\nvalue = [0, 3]\nclass = male"] ;
164 -> 166 ;
167 [label="gini = 0.0\nsamples = 35\nvalue = [0, 35]\nclass = male"] ;
163 -> 167 ;
168 [label="gini = 0.0\nsamples = 6\nvalue = [6, 0]\nclass = female"] ;
160 -> 168 ;
169 [label="gini = 0.0\nsamples = 3\nvalue = [3, 0]\nclass = female"] ;
139 -> 169 ;
170 [label="gini = 0.0\nsamples = 5\nvalue = [5, 0]\nclass = female"] ;
88 -> 170 ;
171 [label="dragonfly <= 0.0\ngini = 0.49\nsamples = 105\nvalue = [45, 60]\nclass = male"] ;
87 -> 171 ;
172 [label="butcher_shop <= 0.0\ngini = 0.479\nsamples = 68\nvalue = [41, 27]\nclass = female"] ;
171 -> 172 ;
173 [label="rock_python <= 0.0\ngini = 0.231\nsamples = 30\nvalue = [26, 4]\nclass = female"] ;
172 -> 173 ;
174 [label="paintbrush <= 0.01\ngini = 0.071\nsamples = 27\nvalue = [26, 1]\nclass = female"] ;
173 -> 174 ;
175 [label="gini = 0.0\nsamples = 26\nvalue = [26, 0]\nclass = female"] ;
174 -> 175 ;
176 [label="gini = 0.0\nsamples = 1\nvalue = [0, 1]\nclass = male"] ;
174 -> 176 ;
177 [label="gini = 0.0\nsamples = 3\nvalue = [0, 3]\nclass = male"] ;
173 -> 177 ;
178 [label="organ <= 0.0\ngini = 0.478\nsamples = 38\nvalue = [15, 23]\nclass = male"] ;
172 -> 178 ;
179 [label="wooden_spoon <= 0.0\ngini = 0.337\nsamples = 14\nvalue = [11, 3]\nclass = female"] ;
178 -> 179 ;
180 [label="gini = 0.0\nsamples = 3\nvalue = [0, 3]\nclass = male"] ;
179 -> 180 ;
181 [label="gini = 0.0\nsamples = 11\nvalue = [11, 0]\nclass = female"] ;
179 -> 181 ;
182 [label="marimba <= 0.005\ngini = 0.278\nsamples = 24\nvalue = [4, 20]\nclass = male"] ;
178 -> 182 ;
183 [label="broom <= 0.0\ngini = 0.095\nsamples = 20\nvalue = [1, 19]\nclass = male"] ;
182 -> 183 ;
184 [label="gini = 0.0\nsamples = 1\nvalue = [1, 0]\nclass = female"] ;
183 -> 184 ;
185 [label="gini = 0.0\nsamples = 19\nvalue = [0, 19]\nclass = male"] ;
183 -> 185 ;
186 [label="neck_brace <= 0.001\ngini = 0.375\nsamples = 4\nvalue = [3, 1]\nclass = female"] ;
182 -> 186 ;
187 [label="gini = 0.0\nsamples = 1\nvalue = [0, 1]\nclass = male"] ;
186 -> 187 ;
188 [label="gini = 0.0\nsamples = 3\nvalue = [3, 0]\nclass = female"] ;
186 -> 188 ;
189 [label="cowboy_boot <= 0.0\ngini = 0.193\nsamples = 37\nvalue = [4, 33]\nclass = male"] ;
171 -> 189 ;
190 [label="chickadee <= 0.0\ngini = 0.057\nsamples = 34\nvalue = [1, 33]\nclass = male"] ;
189 -> 190 ;
191 [label="gini = 0.0\nsamples = 33\nvalue = [0, 33]\nclass = male"] ;
190 -> 191 ;
192 [label="gini = 0.0\nsamples = 1\nvalue = [1, 0]\nclass = female"] ;
190 -> 192 ;
193 [label="gini = 0.0\nsamples = 3\nvalue = [3, 0]\nclass = female"] ;
189 -> 193 ;
194 [label="Brabancon_griffon <= 0.0\ngini = 0.478\nsamples = 283\nvalue = [112, 171]\nclass = male"] ;
86 -> 194 ;
195 [label="brassiere <= 0.0\ngini = 0.496\nsamples = 114\nvalue = [62, 52]\nclass = female"] ;
194 -> 195 ;
196 [label="gini = 0.0\nsamples = 15\nvalue = [0, 15]\nclass = male"] ;
195 -> 196 ;
197 [label="bison <= 0.0\ngini = 0.468\nsamples = 99\nvalue = [62, 37]\nclass = female"] ;
195 -> 197 ;
198 [label="greenhouse <= 0.001\ngini = 0.499\nsamples = 58\nvalue = [28, 30]\nclass = male"] ;
197 -> 198 ;
199 [label="hammer <= 0.0\ngini = 0.444\nsamples = 42\nvalue = [14, 28]\nclass = male"] ;
198 -> 199 ;
200 [label="gini = 0.0\nsamples = 6\nvalue = [6, 0]\nclass = female"] ;
199 -> 200 ;
201 [label="binoculars <= 0.001\ngini = 0.346\nsamples = 36\nvalue = [8, 28]\nclass = male"] ;
199 -> 201 ;
202 [label="brass <= 0.006\ngini = 0.133\nsamples = 28\nvalue = [2, 26]\nclass = male"] ;
201 -> 202 ;
203 [label="gini = 0.0\nsamples = 26\nvalue = [0, 26]\nclass = male"] ;
202 -> 203 ;
204 [label="gini = 0.0\nsamples = 2\nvalue = [2, 0]\nclass = female"] ;
202 -> 204 ;
205 [label="dung_beetle <= 0.0\ngini = 0.375\nsamples = 8\nvalue = [6, 2]\nclass = female"] ;
201 -> 205 ;
206 [label="gini = 0.0\nsamples = 2\nvalue = [0, 2]\nclass = male"] ;
205 -> 206 ;
207 [label="gini = 0.0\nsamples = 6\nvalue = [6, 0]\nclass = female"] ;
205 -> 207 ;
208 [label="lab_coat <= 0.0\ngini = 0.219\nsamples = 16\nvalue = [14, 2]\nclass = female"] ;
198 -> 208 ;
209 [label="gini = 0.0\nsamples = 2\nvalue = [0, 2]\nclass = male"] ;
208 -> 209 ;
210 [label="gini = 0.0\nsamples = 14\nvalue = [14, 0]\nclass = female"] ;
208 -> 210 ;
211 [label="shovel <= 0.002\ngini = 0.283\nsamples = 41\nvalue = [34, 7]\nclass = female"] ;
197 -> 211 ;
212 [label="wall_clock <= 0.0\ngini = 0.062\nsamples = 31\nvalue = [30, 1]\nclass = female"] ;
211 -> 212 ;
213 [label="gini = 0.0\nsamples = 1\nvalue = [0, 1]\nclass = male"] ;
212 -> 213 ;
214 [label="gini = 0.0\nsamples = 30\nvalue = [30, 0]\nclass = female"] ;
212 -> 214 ;
215 [label="French_horn <= 0.0\ngini = 0.48\nsamples = 10\nvalue = [4, 6]\nclass = male"] ;
211 -> 215 ;
216 [label="gini = 0.0\nsamples = 6\nvalue = [0, 6]\nclass = male"] ;
215 -> 216 ;
217 [label="gini = 0.0\nsamples = 4\nvalue = [4, 0]\nclass = female"] ;
215 -> 217 ;
218 [label="broccoli <= 0.0\ngini = 0.417\nsamples = 169\nvalue = [50, 119]\nclass = male"] ;
194 -> 218 ;
219 [label="cougar <= 0.0\ngini = 0.387\nsamples = 160\nvalue = [42, 118]\nclass = male"] ;
218 -> 219 ;
220 [label="electric_fan <= 0.001\ngini = 0.349\nsamples = 151\nvalue = [34, 117]\nclass = male"] ;
219 -> 220 ;
221 [label="Dutch_oven <= 0.002\ngini = 0.325\nsamples = 147\nvalue = [30, 117]\nclass = male"] ;
220 -> 221 ;
222 [label="great_white_shark <= 0.0\ngini = 0.274\nsamples = 134\nvalue = [22, 112]\nclass = male"] ;
221 -> 222 ;
223 [label="ptarmigan <= 0.0\ngini = 0.41\nsamples = 73\nvalue = [21, 52]\nclass = male"] ;
222 -> 223 ;
224 [label="gini = 0.0\nsamples = 28\nvalue = [0, 28]\nclass = male"] ;
223 -> 224 ;
225 [label="banded_gecko <= 0.0\ngini = 0.498\nsamples = 45\nvalue = [21, 24]\nclass = male"] ;
223 -> 225 ;
226 [label="bulletproof_vest <= 0.001\ngini = 0.472\nsamples = 34\nvalue = [21, 13]\nclass = female"] ;
225 -> 226 ;
227 [label="Arabian_camel <= 0.0\ngini = 0.355\nsamples = 26\nvalue = [20, 6]\nclass = female"] ;
226 -> 227 ;
228 [label="throne <= 0.0\ngini = 0.408\nsamples = 7\nvalue = [2, 5]\nclass = male"] ;
227 -> 228 ;
229 [label="gini = 0.0\nsamples = 2\nvalue = [2, 0]\nclass = female"] ;
228 -> 229 ;
230 [label="gini = 0.0\nsamples = 5\nvalue = [0, 5]\nclass = male"] ;
228 -> 230 ;
231 [label="pencil_sharpener <= 0.0\ngini = 0.1\nsamples = 19\nvalue = [18, 1]\nclass = female"] ;
227 -> 231 ;
232 [label="gini = 0.0\nsamples = 1\nvalue = [0, 1]\nclass = male"] ;
231 -> 232 ;
233 [label="gini = 0.0\nsamples = 18\nvalue = [18, 0]\nclass = female"] ;
231 -> 233 ;
234 [label="beacon <= 0.0\ngini = 0.219\nsamples = 8\nvalue = [1, 7]\nclass = male"] ;
226 -> 234 ;
235 [label="gini = 0.0\nsamples = 1\nvalue = [1, 0]\nclass = female"] ;
234 -> 235 ;
236 [label="gini = 0.0\nsamples = 7\nvalue = [0, 7]\nclass = male"] ;
234 -> 236 ;
237 [label="gini = 0.0\nsamples = 11\nvalue = [0, 11]\nclass = male"] ;
225 -> 237 ;
238 [label="guillotine <= 0.003\ngini = 0.032\nsamples = 61\nvalue = [1, 60]\nclass = male"] ;
222 -> 238 ;
239 [label="gini = 0.0\nsamples = 60\nvalue = [0, 60]\nclass = male"] ;
238 -> 239 ;
240 [label="gini = 0.0\nsamples = 1\nvalue = [1, 0]\nclass = female"] ;
238 -> 240 ;
241 [label="maze <= 0.0\ngini = 0.473\nsamples = 13\nvalue = [8, 5]\nclass = female"] ;
221 -> 241 ;
242 [label="daisy <= 0.0\ngini = 0.278\nsamples = 6\nvalue = [1, 5]\nclass = male"] ;
241 -> 242 ;
243 [label="gini = 0.0\nsamples = 1\nvalue = [1, 0]\nclass = female"] ;
242 -> 243 ;
244 [label="gini = 0.0\nsamples = 5\nvalue = [0, 5]\nclass = male"] ;
242 -> 244 ;
245 [label="gini = 0.0\nsamples = 7\nvalue = [7, 0]\nclass = female"] ;
241 -> 245 ;
246 [label="gini = 0.0\nsamples = 4\nvalue = [4, 0]\nclass = female"] ;
220 -> 246 ;
247 [label="disk_brake <= 0.0\ngini = 0.198\nsamples = 9\nvalue = [8, 1]\nclass = female"] ;
219 -> 247 ;
248 [label="gini = 0.0\nsamples = 8\nvalue = [8, 0]\nclass = female"] ;
247 -> 248 ;
249 [label="gini = 0.0\nsamples = 1\nvalue = [0, 1]\nclass = male"] ;
247 -> 249 ;
250 [label="rubber_eraser <= 0.0\ngini = 0.198\nsamples = 9\nvalue = [8, 1]\nclass = female"] ;
218 -> 250 ;
251 [label="gini = 0.0\nsamples = 1\nvalue = [0, 1]\nclass = male"] ;
250 -> 251 ;
252 [label="gini = 0.0\nsamples = 8\nvalue = [8, 0]\nclass = female"] ;
250 -> 252 ;
253 [label="bottlecap <= 0.0\ngini = 0.495\nsamples = 384\nvalue = [173, 211]\nclass = male"] ;
85 -> 253 ;
254 [label="Chihuahua <= 0.0\ngini = 0.488\nsamples = 170\nvalue = [98, 72]\nclass = female"] ;
253 -> 254 ;
255 [label="balloon <= 0.001\ngini = 0.366\nsamples = 29\nvalue = [7, 22]\nclass = male"] ;
254 -> 255 ;
256 [label="strawberry <= 0.001\ngini = 0.159\nsamples = 23\nvalue = [2, 21]\nclass = male"] ;
255 -> 256 ;
257 [label="gini = 0.0\nsamples = 21\nvalue = [0, 21]\nclass = male"] ;
256 -> 257 ;
258 [label="gini = 0.0\nsamples = 2\nvalue = [2, 0]\nclass = female"] ;
256 -> 258 ;
259 [label="sliding_door <= 0.005\ngini = 0.278\nsamples = 6\nvalue = [5, 1]\nclass = female"] ;
255 -> 259 ;
260 [label="gini = 0.0\nsamples = 5\nvalue = [5, 0]\nclass = female"] ;
259 -> 260 ;
261 [label="gini = 0.0\nsamples = 1\nvalue = [0, 1]\nclass = male"] ;
259 -> 261 ;
262 [label="bolo_tie <= 0.0\ngini = 0.458\nsamples = 141\nvalue = [91, 50]\nclass = female"] ;
254 -> 262 ;
263 [label="jaguar <= 0.0\ngini = 0.378\nsamples = 99\nvalue = [74, 25]\nclass = female"] ;
262 -> 263 ;
264 [label="swing <= 0.0\ngini = 0.272\nsamples = 74\nvalue = [62, 12]\nclass = female"] ;
263 -> 264 ;
265 [label="oxcart <= 0.0\ngini = 0.498\nsamples = 15\nvalue = [7, 8]\nclass = male"] ;
264 -> 265 ;
266 [label="liner <= 0.0\ngini = 0.198\nsamples = 9\nvalue = [1, 8]\nclass = male"] ;
265 -> 266 ;
267 [label="gini = 0.0\nsamples = 1\nvalue = [1, 0]\nclass = female"] ;
266 -> 267 ;
268 [label="gini = 0.0\nsamples = 8\nvalue = [0, 8]\nclass = male"] ;
266 -> 268 ;
269 [label="gini = 0.0\nsamples = 6\nvalue = [6, 0]\nclass = female"] ;
265 -> 269 ;
270 [label="whiptail <= 0.0\ngini = 0.126\nsamples = 59\nvalue = [55, 4]\nclass = female"] ;
264 -> 270 ;
271 [label="menu <= 0.171\ngini = 0.037\nsamples = 53\nvalue = [52, 1]\nclass = female"] ;
270 -> 271 ;
272 [label="gini = 0.0\nsamples = 52\nvalue = [52, 0]\nclass = female"] ;
271 -> 272 ;
273 [label="gini = 0.0\nsamples = 1\nvalue = [0, 1]\nclass = male"] ;
271 -> 273 ;
274 [label="cleaver <= 0.001\ngini = 0.5\nsamples = 6\nvalue = [3, 3]\nclass = female"] ;
270 -> 274 ;
275 [label="gini = 0.0\nsamples = 3\nvalue = [0, 3]\nclass = male"] ;
274 -> 275 ;
276 [label="gini = 0.0\nsamples = 3\nvalue = [3, 0]\nclass = female"] ;
274 -> 276 ;
277 [label="tarantula <= 0.0\ngini = 0.499\nsamples = 25\nvalue = [12, 13]\nclass = male"] ;
263 -> 277 ;
278 [label="gini = 0.0\nsamples = 10\nvalue = [0, 10]\nclass = male"] ;
277 -> 278 ;
279 [label="forklift <= 0.0\ngini = 0.32\nsamples = 15\nvalue = [12, 3]\nclass = female"] ;
277 -> 279 ;
280 [label="gini = 0.0\nsamples = 12\nvalue = [12, 0]\nclass = female"] ;
279 -> 280 ;
281 [label="gini = 0.0\nsamples = 3\nvalue = [0, 3]\nclass = male"] ;
279 -> 281 ;
282 [label="four-poster <= 0.0\ngini = 0.482\nsamples = 42\nvalue = [17, 25]\nclass = male"] ;
262 -> 282 ;
283 [label="minibus <= 0.0\ngini = 0.124\nsamples = 15\nvalue = [1, 14]\nclass = male"] ;
282 -> 283 ;
284 [label="gini = 0.0\nsamples = 1\nvalue = [1, 0]\nclass = female"] ;
283 -> 284 ;
285 [label="gini = 0.0\nsamples = 14\nvalue = [0, 14]\nclass = male"] ;
283 -> 285 ;
286 [label="snowplow <= 0.0\ngini = 0.483\nsamples = 27\nvalue = [16, 11]\nclass = female"] ;
282 -> 286 ;
287 [label="cicada <= 0.0\ngini = 0.278\nsamples = 18\nvalue = [15, 3]\nclass = female"] ;
286 -> 287 ;
288 [label="gini = 0.0\nsamples = 15\nvalue = [15, 0]\nclass = female"] ;
287 -> 288 ;
289 [label="gini = 0.0\nsamples = 3\nvalue = [0, 3]\nclass = male"] ;
287 -> 289 ;
290 [label="rapeseed <= 0.0\ngini = 0.198\nsamples = 9\nvalue = [1, 8]\nclass = male"] ;
286 -> 290 ;
291 [label="gini = 0.0\nsamples = 1\nvalue = [1, 0]\nclass = female"] ;
290 -> 291 ;
292 [label="gini = 0.0\nsamples = 8\nvalue = [0, 8]\nclass = male"] ;
290 -> 292 ;
293 [label="scoreboard <= 0.0\ngini = 0.455\nsamples = 214\nvalue = [75, 139]\nclass = male"] ;
253 -> 293 ;
294 [label="tile_roof <= 0.0\ngini = 0.484\nsamples = 61\nvalue = [36, 25]\nclass = female"] ;
293 -> 294 ;
295 [label="tobacco_shop <= 0.0\ngini = 0.225\nsamples = 31\nvalue = [27, 4]\nclass = female"] ;
294 -> 295 ;
296 [label="gini = 0.0\nsamples = 3\nvalue = [0, 3]\nclass = male"] ;
295 -> 296 ;
297 [label="honeycomb <= 0.004\ngini = 0.069\nsamples = 28\nvalue = [27, 1]\nclass = female"] ;
295 -> 297 ;
298 [label="gini = 0.0\nsamples = 27\nvalue = [27, 0]\nclass = female"] ;
297 -> 298 ;
299 [label="gini = 0.0\nsamples = 1\nvalue = [0, 1]\nclass = male"] ;
297 -> 299 ;
300 [label="mortar <= 0.0\ngini = 0.42\nsamples = 30\nvalue = [9, 21]\nclass = male"] ;
294 -> 300 ;
301 [label="orangutan <= 0.0\ngini = 0.426\nsamples = 13\nvalue = [9, 4]\nclass = female"] ;
300 -> 301 ;
302 [label="gini = 0.0\nsamples = 4\nvalue = [0, 4]\nclass = male"] ;
301 -> 302 ;
303 [label="gini = 0.0\nsamples = 9\nvalue = [9, 0]\nclass = female"] ;
301 -> 303 ;
304 [label="gini = 0.0\nsamples = 17\nvalue = [0, 17]\nclass = male"] ;
300 -> 304 ;
305 [label="bakery <= 0.002\ngini = 0.38\nsamples = 153\nvalue = [39, 114]\nclass = male"] ;
293 -> 305 ;
306 [label="lakeside <= 0.002\ngini = 0.299\nsamples = 131\nvalue = [24, 107]\nclass = male"] ;
305 -> 306 ;
307 [label="brass <= 0.054\ngini = 0.214\nsamples = 115\nvalue = [14, 101]\nclass = male"] ;
306 -> 307 ;
308 [label="triceratops <= 0.0\ngini = 0.165\nsamples = 110\nvalue = [10, 100]\nclass = male"] ;
307 -> 308 ;
309 [label="gini = 0.0\nsamples = 3\nvalue = [3, 0]\nclass = female"] ;
308 -> 309 ;
310 [label="ice_lolly <= 0.009\ngini = 0.122\nsamples = 107\nvalue = [7, 100]\nclass = male"] ;
308 -> 310 ;
311 [label="castle <= 0.005\ngini = 0.091\nsamples = 105\nvalue = [5, 100]\nclass = male"] ;
310 -> 311 ;
312 [label="wreck <= 0.014\ngini = 0.057\nsamples = 102\nvalue = [3, 99]\nclass = male"] ;
311 -> 312 ;
313 [label="skunk <= 0.002\ngini = 0.039\nsamples = 101\nvalue = [2, 99]\nclass = male"] ;
312 -> 313 ;
314 [label="face_powder <= 0.015\ngini = 0.02\nsamples = 100\nvalue = [1, 99]\nclass = male"] ;
313 -> 314 ;
315 [label="gini = 0.0\nsamples = 99\nvalue = [0, 99]\nclass = male"] ;
314 -> 315 ;
316 [label="gini = 0.0\nsamples = 1\nvalue = [1, 0]\nclass = female"] ;
314 -> 316 ;
317 [label="gini = 0.0\nsamples = 1\nvalue = [1, 0]\nclass = female"] ;
313 -> 317 ;
318 [label="gini = 0.0\nsamples = 1\nvalue = [1, 0]\nclass = female"] ;
312 -> 318 ;
319 [label="bee <= 0.0\ngini = 0.444\nsamples = 3\nvalue = [2, 1]\nclass = female"] ;
311 -> 319 ;
320 [label="gini = 0.0\nsamples = 1\nvalue = [0, 1]\nclass = male"] ;
319 -> 320 ;
321 [label="gini = 0.0\nsamples = 2\nvalue = [2, 0]\nclass = female"] ;
319 -> 321 ;
322 [label="gini = 0.0\nsamples = 2\nvalue = [2, 0]\nclass = female"] ;
310 -> 322 ;
323 [label="American_Staffordshire_terrier <= 0.0\ngini = 0.32\nsamples = 5\nvalue = [4, 1]\nclass = female"] ;
307 -> 323 ;
324 [label="gini = 0.0\nsamples = 1\nvalue = [0, 1]\nclass = male"] ;
323 -> 324 ;
325 [label="gini = 0.0\nsamples = 4\nvalue = [4, 0]\nclass = female"] ;
323 -> 325 ;
326 [label="garden_spider <= 0.0\ngini = 0.469\nsamples = 16\nvalue = [10, 6]\nclass = female"] ;
306 -> 326 ;
327 [label="gini = 0.0\nsamples = 6\nvalue = [0, 6]\nclass = male"] ;
326 -> 327 ;
328 [label="gini = 0.0\nsamples = 10\nvalue = [10, 0]\nclass = female"] ;
326 -> 328 ;
329 [label="crutch <= 0.002\ngini = 0.434\nsamples = 22\nvalue = [15, 7]\nclass = female"] ;
305 -> 329 ;
330 [label="mushroom <= 0.0\ngini = 0.133\nsamples = 14\nvalue = [13, 1]\nclass = female"] ;
329 -> 330 ;
331 [label="gini = 0.0\nsamples = 1\nvalue = [0, 1]\nclass = male"] ;
330 -> 331 ;
332 [label="gini = 0.0\nsamples = 13\nvalue = [13, 0]\nclass = female"] ;
330 -> 332 ;
333 [label="bee_eater <= 0.0\ngini = 0.375\nsamples = 8\nvalue = [2, 6]\nclass = male"] ;
329 -> 333 ;
334 [label="gini = 0.0\nsamples = 2\nvalue = [2, 0]\nclass = female"] ;
333 -> 334 ;
335 [label="gini = 0.0\nsamples = 6\nvalue = [0, 6]\nclass = male"] ;
333 -> 335 ;
336 [label="tub <= 0.0\ngini = 0.491\nsamples = 695\nvalue = [394, 301]\nclass = female"] ;
2 -> 336 ;
337 [label="rugby_ball <= 0.0\ngini = 0.495\nsamples = 300\nvalue = [135, 165]\nclass = male"] ;
336 -> 337 ;
338 [label="wig <= 0.004\ngini = 0.493\nsamples = 181\nvalue = [101, 80]\nclass = female"] ;
337 -> 338 ;
339 [label="Eskimo_dog <= 0.0\ngini = 0.496\nsamples = 119\nvalue = [54, 65]\nclass = male"] ;
338 -> 339 ;
340 [label="gondola <= 0.0\ngini = 0.473\nsamples = 104\nvalue = [40, 64]\nclass = male"] ;
339 -> 340 ;
341 [label="horse_cart <= 0.0\ngini = 0.165\nsamples = 11\nvalue = [10, 1]\nclass = female"] ;
340 -> 341 ;
342 [label="gini = 0.0\nsamples = 10\nvalue = [10, 0]\nclass = female"] ;
341 -> 342 ;
343 [label="gini = 0.0\nsamples = 1\nvalue = [0, 1]\nclass = male"] ;
341 -> 343 ;
344 [label="thresher <= 0.0\ngini = 0.437\nsamples = 93\nvalue = [30, 63]\nclass = male"] ;
340 -> 344 ;
345 [label="vestment <= 0.0\ngini = 0.392\nsamples = 86\nvalue = [23, 63]\nclass = male"] ;
344 -> 345 ;
346 [label="bow <= 0.0\ngini = 0.491\nsamples = 51\nvalue = [22, 29]\nclass = male"] ;
345 -> 346 ;
347 [label="ox <= 0.0\ngini = 0.435\nsamples = 25\nvalue = [17, 8]\nclass = female"] ;
346 -> 347 ;
348 [label="golden_retriever <= 0.0\ngini = 0.308\nsamples = 21\nvalue = [17, 4]\nclass = female"] ;
347 -> 348 ;
349 [label="gini = 0.0\nsamples = 3\nvalue = [0, 3]\nclass = male"] ;
348 -> 349 ;
350 [label="pug <= 0.001\ngini = 0.105\nsamples = 18\nvalue = [17, 1]\nclass = female"] ;
348 -> 350 ;
351 [label="gini = 0.0\nsamples = 17\nvalue = [17, 0]\nclass = female"] ;
350 -> 351 ;
352 [label="gini = 0.0\nsamples = 1\nvalue = [0, 1]\nclass = male"] ;
350 -> 352 ;
353 [label="gini = 0.0\nsamples = 4\nvalue = [0, 4]\nclass = male"] ;
347 -> 353 ;
354 [label="military_uniform <= 0.001\ngini = 0.311\nsamples = 26\nvalue = [5, 21]\nclass = male"] ;
346 -> 354 ;
355 [label="washbasin <= 0.0\ngini = 0.159\nsamples = 23\nvalue = [2, 21]\nclass = male"] ;
354 -> 355 ;
356 [label="gini = 0.0\nsamples = 21\nvalue = [0, 21]\nclass = male"] ;
355 -> 356 ;
357 [label="gini = 0.0\nsamples = 2\nvalue = [2, 0]\nclass = female"] ;
355 -> 357 ;
358 [label="gini = 0.0\nsamples = 3\nvalue = [3, 0]\nclass = female"] ;
354 -> 358 ;
359 [label="aircraft_carrier <= 0.031\ngini = 0.056\nsamples = 35\nvalue = [1, 34]\nclass = male"] ;
345 -> 359 ;
360 [label="gini = 0.0\nsamples = 34\nvalue = [0, 34]\nclass = male"] ;
359 -> 360 ;
361 [label="gini = 0.0\nsamples = 1\nvalue = [1, 0]\nclass = female"] ;
359 -> 361 ;
362 [label="gini = 0.0\nsamples = 7\nvalue = [7, 0]\nclass = female"] ;
344 -> 362 ;
363 [label="combination_lock <= 0.001\ngini = 0.124\nsamples = 15\nvalue = [14, 1]\nclass = female"] ;
339 -> 363 ;
364 [label="gini = 0.0\nsamples = 14\nvalue = [14, 0]\nclass = female"] ;
363 -> 364 ;
365 [label="gini = 0.0\nsamples = 1\nvalue = [0, 1]\nclass = male"] ;
363 -> 365 ;
366 [label="tank <= 0.0\ngini = 0.367\nsamples = 62\nvalue = [47, 15]\nclass = female"] ;
338 -> 366 ;
367 [label="hay <= 0.001\ngini = 0.27\nsamples = 56\nvalue = [47, 9]\nclass = female"] ;
366 -> 367 ;
368 [label="mortarboard <= 0.0\ngini = 0.201\nsamples = 53\nvalue = [47, 6]\nclass = female"] ;
367 -> 368 ;
369 [label="American_lobster <= 0.0\ngini = 0.375\nsamples = 4\nvalue = [1, 3]\nclass = male"] ;
368 -> 369 ;
370 [label="gini = 0.0\nsamples = 1\nvalue = [1, 0]\nclass = female"] ;
369 -> 370 ;
371 [label="gini = 0.0\nsamples = 3\nvalue = [0, 3]\nclass = male"] ;
369 -> 371 ;
372 [label="dugong <= 0.0\ngini = 0.115\nsamples = 49\nvalue = [46, 3]\nclass = female"] ;
368 -> 372 ;
373 [label="cloak <= 0.009\ngini = 0.042\nsamples = 47\nvalue = [46, 1]\nclass = female"] ;
372 -> 373 ;
374 [label="gini = 0.0\nsamples = 46\nvalue = [46, 0]\nclass = female"] ;
373 -> 374 ;
375 [label="gini = 0.0\nsamples = 1\nvalue = [0, 1]\nclass = male"] ;
373 -> 375 ;
376 [label="gini = 0.0\nsamples = 2\nvalue = [0, 2]\nclass = male"] ;
372 -> 376 ;
377 [label="gini = 0.0\nsamples = 3\nvalue = [0, 3]\nclass = male"] ;
367 -> 377 ;
378 [label="gini = 0.0\nsamples = 6\nvalue = [0, 6]\nclass = male"] ;
366 -> 378 ;
379 [label="organ <= 0.0\ngini = 0.408\nsamples = 119\nvalue = [34, 85]\nclass = male"] ;
337 -> 379 ;
380 [label="face_powder <= 0.002\ngini = 0.342\nsamples = 105\nvalue = [23, 82]\nclass = male"] ;
379 -> 380 ;
381 [label="electric_locomotive <= 0.0\ngini = 0.268\nsamples = 94\nvalue = [15, 79]\nclass = male"] ;
380 -> 381 ;
382 [label="gini = 0.0\nsamples = 3\nvalue = [3, 0]\nclass = female"] ;
381 -> 382 ;
383 [label="viaduct <= 0.0\ngini = 0.229\nsamples = 91\nvalue = [12, 79]\nclass = male"] ;
381 -> 383 ;
384 [label="knee_pad <= 0.011\ngini = 0.137\nsamples = 81\nvalue = [6, 75]\nclass = male"] ;
383 -> 384 ;
385 [label="jigsaw_puzzle <= 0.015\ngini = 0.096\nsamples = 79\nvalue = [4, 75]\nclass = male"] ;
384 -> 385 ;
386 [label="velvet <= 0.0\ngini = 0.027\nsamples = 74\nvalue = [1, 73]\nclass = male"] ;
385 -> 386 ;
387 [label="gini = 0.0\nsamples = 73\nvalue = [0, 73]\nclass = male"] ;
386 -> 387 ;
388 [label="gini = 0.0\nsamples = 1\nvalue = [1, 0]\nclass = female"] ;
386 -> 388 ;
389 [label="necklace <= 0.0\ngini = 0.48\nsamples = 5\nvalue = [3, 2]\nclass = female"] ;
385 -> 389 ;
390 [label="gini = 0.0\nsamples = 2\nvalue = [0, 2]\nclass = male"] ;
389 -> 390 ;
391 [label="gini = 0.0\nsamples = 3\nvalue = [3, 0]\nclass = female"] ;
389 -> 391 ;
392 [label="gini = 0.0\nsamples = 2\nvalue = [2, 0]\nclass = female"] ;
384 -> 392 ;
393 [label="Tibetan_terrier <= 0.0\ngini = 0.48\nsamples = 10\nvalue = [6, 4]\nclass = female"] ;
383 -> 393 ;
394 [label="gini = 0.0\nsamples = 4\nvalue = [0, 4]\nclass = male"] ;
393 -> 394 ;
395 [label="gini = 0.0\nsamples = 6\nvalue = [6, 0]\nclass = female"] ;
393 -> 395 ;
396 [label="toy_poodle <= 0.0\ngini = 0.397\nsamples = 11\nvalue = [8, 3]\nclass = female"] ;
380 -> 396 ;
397 [label="gini = 0.0\nsamples = 8\nvalue = [8, 0]\nclass = female"] ;
396 -> 397 ;
398 [label="gini = 0.0\nsamples = 3\nvalue = [0, 3]\nclass = male"] ;
396 -> 398 ;
399 [label="spotted_salamander <= 0.0\ngini = 0.337\nsamples = 14\nvalue = [11, 3]\nclass = female"] ;
379 -> 399 ;
400 [label="gini = 0.0\nsamples = 11\nvalue = [11, 0]\nclass = female"] ;
399 -> 400 ;
401 [label="gini = 0.0\nsamples = 3\nvalue = [0, 3]\nclass = male"] ;
399 -> 401 ;
402 [label="sturgeon <= 0.001\ngini = 0.452\nsamples = 395\nvalue = [259, 136]\nclass = female"] ;
336 -> 402 ;
403 [label="cassette_player <= 0.0\ngini = 0.427\nsamples = 350\nvalue = [242, 108]\nclass = female"] ;
402 -> 403 ;
404 [label="Shih-Tzu <= 0.0\ngini = 0.385\nsamples = 288\nvalue = [213, 75]\nclass = female"] ;
403 -> 404 ;
405 [label="pickelhaube <= 0.0\ngini = 0.467\nsamples = 143\nvalue = [90, 53]\nclass = female"] ;
404 -> 405 ;
406 [label="pole <= 0.0\ngini = 0.256\nsamples = 53\nvalue = [45, 8]\nclass = female"] ;
405 -> 406 ;
407 [label="limousine <= 0.002\ngini = 0.278\nsamples = 6\nvalue = [1, 5]\nclass = male"] ;
406 -> 407 ;
408 [label="gini = 0.0\nsamples = 5\nvalue = [0, 5]\nclass = male"] ;
407 -> 408 ;
409 [label="gini = 0.0\nsamples = 1\nvalue = [1, 0]\nclass = female"] ;
407 -> 409 ;
410 [label="waffle_iron <= 0.003\ngini = 0.12\nsamples = 47\nvalue = [44, 3]\nclass = female"] ;
406 -> 410 ;
411 [label="puffer <= 0.0\ngini = 0.043\nsamples = 45\nvalue = [44, 1]\nclass = female"] ;
410 -> 411 ;
412 [label="gini = 0.0\nsamples = 44\nvalue = [44, 0]\nclass = female"] ;
411 -> 412 ;
413 [label="gini = 0.0\nsamples = 1\nvalue = [0, 1]\nclass = male"] ;
411 -> 413 ;
414 [label="gini = 0.0\nsamples = 2\nvalue = [0, 2]\nclass = male"] ;
410 -> 414 ;
415 [label="harp <= 0.002\ngini = 0.5\nsamples = 90\nvalue = [45, 45]\nclass = female"] ;
405 -> 415 ;
416 [label="banjo <= 0.001\ngini = 0.482\nsamples = 74\nvalue = [30, 44]\nclass = male"] ;
415 -> 416 ;
417 [label="briard <= 0.0\ngini = 0.499\nsamples = 58\nvalue = [30, 28]\nclass = female"] ;
416 -> 417 ;
418 [label="potter's_wheel <= 0.0\ngini = 0.124\nsamples = 15\nvalue = [1, 14]\nclass = male"] ;
417 -> 418 ;
419 [label="gini = 0.0\nsamples = 1\nvalue = [1, 0]\nclass = female"] ;
418 -> 419 ;
420 [label="gini = 0.0\nsamples = 14\nvalue = [0, 14]\nclass = male"] ;
418 -> 420 ;
421 [label="binder <= 0.002\ngini = 0.439\nsamples = 43\nvalue = [29, 14]\nclass = female"] ;
417 -> 421 ;
422 [label="bassinet <= 0.0\ngini = 0.245\nsamples = 28\nvalue = [24, 4]\nclass = female"] ;
421 -> 422 ;
423 [label="spider_monkey <= 0.0\ngini = 0.444\nsamples = 6\nvalue = [2, 4]\nclass = male"] ;
422 -> 423 ;
424 [label="gini = 0.0\nsamples = 2\nvalue = [2, 0]\nclass = female"] ;
423 -> 424 ;
425 [label="gini = 0.0\nsamples = 4\nvalue = [0, 4]\nclass = male"] ;
423 -> 425 ;
426 [label="gini = 0.0\nsamples = 22\nvalue = [22, 0]\nclass = female"] ;
422 -> 426 ;
427 [label="tobacco_shop <= 0.0\ngini = 0.444\nsamples = 15\nvalue = [5, 10]\nclass = male"] ;
421 -> 427 ;
428 [label="gini = 0.0\nsamples = 9\nvalue = [0, 9]\nclass = male"] ;
427 -> 428 ;
429 [label="dalmatian <= 0.0\ngini = 0.278\nsamples = 6\nvalue = [5, 1]\nclass = female"] ;
427 -> 429 ;
430 [label="gini = 0.0\nsamples = 1\nvalue = [0, 1]\nclass = male"] ;
429 -> 430 ;
431 [label="gini = 0.0\nsamples = 5\nvalue = [5, 0]\nclass = female"] ;
429 -> 431 ;
432 [label="gini = 0.0\nsamples = 16\nvalue = [0, 16]\nclass = male"] ;
416 -> 432 ;
433 [label="hip <= 0.005\ngini = 0.117\nsamples = 16\nvalue = [15, 1]\nclass = female"] ;
415 -> 433 ;
434 [label="gini = 0.0\nsamples = 15\nvalue = [15, 0]\nclass = female"] ;
433 -> 434 ;
435 [label="gini = 0.0\nsamples = 1\nvalue = [0, 1]\nclass = male"] ;
433 -> 435 ;
436 [label="bath_towel <= 0.008\ngini = 0.257\nsamples = 145\nvalue = [123, 22]\nclass = female"] ;
404 -> 436 ;
437 [label="frilled_lizard <= 0.0\ngini = 0.223\nsamples = 141\nvalue = [123, 18]\nclass = female"] ;
436 -> 437 ;
438 [label="golden_retriever <= 0.0\ngini = 0.185\nsamples = 136\nvalue = [122, 14]\nclass = female"] ;
437 -> 438 ;
439 [label="tailed_frog <= 0.0\ngini = 0.32\nsamples = 5\nvalue = [1, 4]\nclass = male"] ;
438 -> 439 ;
440 [label="gini = 0.0\nsamples = 4\nvalue = [0, 4]\nclass = male"] ;
439 -> 440 ;
441 [label="gini = 0.0\nsamples = 1\nvalue = [1, 0]\nclass = female"] ;
439 -> 441 ;
442 [label="maraca <= 0.009\ngini = 0.141\nsamples = 131\nvalue = [121, 10]\nclass = female"] ;
438 -> 442 ;
443 [label="soap_dispenser <= 0.001\ngini = 0.116\nsamples = 129\nvalue = [121, 8]\nclass = female"] ;
442 -> 443 ;
444 [label="ashcan <= 0.006\ngini = 0.078\nsamples = 123\nvalue = [118, 5]\nclass = female"] ;
443 -> 444 ;
445 [label="canoe <= 0.017\ngini = 0.049\nsamples = 120\nvalue = [117, 3]\nclass = female"] ;
444 -> 445 ;
446 [label="hammer <= 0.007\ngini = 0.033\nsamples = 119\nvalue = [117, 2]\nclass = female"] ;
445 -> 446 ;
447 [label="bookshop <= 0.066\ngini = 0.017\nsamples = 118\nvalue = [117, 1]\nclass = female"] ;
446 -> 447 ;
448 [label="gini = 0.0\nsamples = 117\nvalue = [117, 0]\nclass = female"] ;
447 -> 448 ;
449 [label="gini = 0.0\nsamples = 1\nvalue = [0, 1]\nclass = male"] ;
447 -> 449 ;
450 [label="gini = 0.0\nsamples = 1\nvalue = [0, 1]\nclass = male"] ;
446 -> 450 ;
451 [label="gini = 0.0\nsamples = 1\nvalue = [0, 1]\nclass = male"] ;
445 -> 451 ;
452 [label="water_snake <= 0.0\ngini = 0.444\nsamples = 3\nvalue = [1, 2]\nclass = male"] ;
444 -> 452 ;
453 [label="gini = 0.0\nsamples = 1\nvalue = [1, 0]\nclass = female"] ;
452 -> 453 ;
454 [label="gini = 0.0\nsamples = 2\nvalue = [0, 2]\nclass = male"] ;
452 -> 454 ;
455 [label="Leonberg <= 0.0\ngini = 0.5\nsamples = 6\nvalue = [3, 3]\nclass = female"] ;
443 -> 455 ;
456 [label="gini = 0.0\nsamples = 3\nvalue = [0, 3]\nclass = male"] ;
455 -> 456 ;
457 [label="gini = 0.0\nsamples = 3\nvalue = [3, 0]\nclass = female"] ;
455 -> 457 ;
458 [label="gini = 0.0\nsamples = 2\nvalue = [0, 2]\nclass = male"] ;
442 -> 458 ;
459 [label="ballplayer <= 0.0\ngini = 0.32\nsamples = 5\nvalue = [1, 4]\nclass = male"] ;
437 -> 459 ;
460 [label="gini = 0.0\nsamples = 1\nvalue = [1, 0]\nclass = female"] ;
459 -> 460 ;
461 [label="gini = 0.0\nsamples = 4\nvalue = [0, 4]\nclass = male"] ;
459 -> 461 ;
462 [label="gini = 0.0\nsamples = 4\nvalue = [0, 4]\nclass = male"] ;
436 -> 462 ;
463 [label="cleaver <= 0.001\ngini = 0.498\nsamples = 62\nvalue = [29, 33]\nclass = male"] ;
403 -> 463 ;
464 [label="trench_coat <= 0.001\ngini = 0.266\nsamples = 19\nvalue = [16, 3]\nclass = female"] ;
463 -> 464 ;
465 [label="patio <= 0.0\ngini = 0.111\nsamples = 17\nvalue = [16, 1]\nclass = female"] ;
464 -> 465 ;
466 [label="gini = 0.0\nsamples = 1\nvalue = [0, 1]\nclass = male"] ;
465 -> 466 ;
467 [label="gini = 0.0\nsamples = 16\nvalue = [16, 0]\nclass = female"] ;
465 -> 467 ;
468 [label="gini = 0.0\nsamples = 2\nvalue = [0, 2]\nclass = male"] ;
464 -> 468 ;
469 [label="warplane <= 0.0\ngini = 0.422\nsamples = 43\nvalue = [13, 30]\nclass = male"] ;
463 -> 469 ;
470 [label="gini = 0.0\nsamples = 6\nvalue = [6, 0]\nclass = female"] ;
469 -> 470 ;
471 [label="carousel <= 0.0\ngini = 0.307\nsamples = 37\nvalue = [7, 30]\nclass = male"] ;
469 -> 471 ;
472 [label="West_Highland_white_terrier <= 0.002\ngini = 0.069\nsamples = 28\nvalue = [1, 27]\nclass = male"] ;
471 -> 472 ;
473 [label="gini = 0.0\nsamples = 27\nvalue = [0, 27]\nclass = male"] ;
472 -> 473 ;
474 [label="gini = 0.0\nsamples = 1\nvalue = [1, 0]\nclass = female"] ;
472 -> 474 ;
475 [label="Shetland_sheepdog <= 0.0\ngini = 0.444\nsamples = 9\nvalue = [6, 3]\nclass = female"] ;
471 -> 475 ;
476 [label="gini = 0.0\nsamples = 3\nvalue = [0, 3]\nclass = male"] ;
475 -> 476 ;
477 [label="gini = 0.0\nsamples = 6\nvalue = [6, 0]\nclass = female"] ;
475 -> 477 ;
478 [label="dragonfly <= 0.0\ngini = 0.47\nsamples = 45\nvalue = [17, 28]\nclass = male"] ;
402 -> 478 ;
479 [label="king_crab <= 0.0\ngini = 0.18\nsamples = 10\nvalue = [9, 1]\nclass = female"] ;
478 -> 479 ;
480 [label="gini = 0.0\nsamples = 1\nvalue = [0, 1]\nclass = male"] ;
479 -> 480 ;
481 [label="gini = 0.0\nsamples = 9\nvalue = [9, 0]\nclass = female"] ;
479 -> 481 ;
482 [label="Indian_cobra <= 0.001\ngini = 0.353\nsamples = 35\nvalue = [8, 27]\nclass = male"] ;
478 -> 482 ;
483 [label="potter's_wheel <= 0.0\ngini = 0.225\nsamples = 31\nvalue = [4, 27]\nclass = male"] ;
482 -> 483 ;
484 [label="snail <= 0.0\ngini = 0.32\nsamples = 5\nvalue = [4, 1]\nclass = female"] ;
483 -> 484 ;
485 [label="gini = 0.0\nsamples = 1\nvalue = [0, 1]\nclass = male"] ;
484 -> 485 ;
486 [label="gini = 0.0\nsamples = 4\nvalue = [4, 0]\nclass = female"] ;
484 -> 486 ;
487 [label="gini = 0.0\nsamples = 26\nvalue = [0, 26]\nclass = male"] ;
483 -> 487 ;
488 [label="gini = 0.0\nsamples = 4\nvalue = [4, 0]\nclass = female"] ;
482 -> 488 ;
489 [label="wig <= 0.002\ngini = 0.387\nsamples = 1078\nvalue = [283, 795]\nclass = male"] ;
1 -> 489 ;
490 [label="three-toed_sloth <= 0.0\ngini = 0.33\nsamples = 764\nvalue = [159, 605]\nclass = male"] ;
489 -> 490 ;
491 [label="bikini <= 0.002\ngini = 0.316\nsamples = 746\nvalue = [147, 599]\nclass = male"] ;
490 -> 491 ;
492 [label="cardigan <= 0.003\ngini = 0.289\nsamples = 674\nvalue = [118, 556]\nclass = male"] ;
491 -> 492 ;
493 [label="lotion <= 0.01\ngini = 0.27\nsamples = 646\nvalue = [104, 542]\nclass = male"] ;
492 -> 493 ;
494 [label="theater_curtain <= 0.009\ngini = 0.257\nsamples = 634\nvalue = [96, 538]\nclass = male"] ;
493 -> 494 ;
495 [label="perfume <= 0.01\ngini = 0.237\nsamples = 603\nvalue = [83, 520]\nclass = male"] ;
494 -> 495 ;
496 [label="cellular_telephone <= 0.0\ngini = 0.227\nsamples = 596\nvalue = [78, 518]\nclass = male"] ;
495 -> 496 ;
497 [label="hartebeest <= 0.0\ngini = 0.47\nsamples = 37\nvalue = [14, 23]\nclass = male"] ;
496 -> 497 ;
498 [label="hatchet <= 0.001\ngini = 0.383\nsamples = 31\nvalue = [8, 23]\nclass = male"] ;
497 -> 498 ;
499 [label="teddy <= 0.0\ngini = 0.252\nsamples = 27\nvalue = [4, 23]\nclass = male"] ;
498 -> 499 ;
500 [label="digital_watch <= 0.001\ngini = 0.083\nsamples = 23\nvalue = [1, 22]\nclass = male"] ;
499 -> 500 ;
501 [label="gini = 0.0\nsamples = 22\nvalue = [0, 22]\nclass = male"] ;
500 -> 501 ;
502 [label="gini = 0.0\nsamples = 1\nvalue = [1, 0]\nclass = female"] ;
500 -> 502 ;
503 [label="zebra <= 0.0\ngini = 0.375\nsamples = 4\nvalue = [3, 1]\nclass = female"] ;
499 -> 503 ;
504 [label="gini = 0.0\nsamples = 1\nvalue = [0, 1]\nclass = male"] ;
503 -> 504 ;
505 [label="gini = 0.0\nsamples = 3\nvalue = [3, 0]\nclass = female"] ;
503 -> 505 ;
506 [label="gini = 0.0\nsamples = 4\nvalue = [4, 0]\nclass = female"] ;
498 -> 506 ;
507 [label="gini = 0.0\nsamples = 6\nvalue = [6, 0]\nclass = female"] ;
497 -> 507 ;
508 [label="pop_bottle <= 0.014\ngini = 0.203\nsamples = 559\nvalue = [64, 495]\nclass = male"] ;
496 -> 508 ;
509 [label="tank <= 0.004\ngini = 0.195\nsamples = 556\nvalue = [61, 495]\nclass = male"] ;
508 -> 509 ;
510 [label="carousel <= 0.0\ngini = 0.183\nsamples = 548\nvalue = [56, 492]\nclass = male"] ;
509 -> 510 ;
511 [label="monitor <= 0.0\ngini = 0.444\nsamples = 30\nvalue = [10, 20]\nclass = male"] ;
510 -> 511 ;
512 [label="gini = 0.0\nsamples = 6\nvalue = [6, 0]\nclass = female"] ;
511 -> 512 ;
513 [label="brassiere <= 0.0\ngini = 0.278\nsamples = 24\nvalue = [4, 20]\nclass = male"] ;
511 -> 513 ;
514 [label="gini = 0.0\nsamples = 18\nvalue = [0, 18]\nclass = male"] ;
513 -> 514 ;
515 [label="milk_can <= 0.0\ngini = 0.444\nsamples = 6\nvalue = [4, 2]\nclass = female"] ;
513 -> 515 ;
516 [label="gini = 0.0\nsamples = 2\nvalue = [0, 2]\nclass = male"] ;
515 -> 516 ;
517 [label="gini = 0.0\nsamples = 4\nvalue = [4, 0]\nclass = female"] ;
515 -> 517 ;
518 [label="wardrobe <= 0.024\ngini = 0.162\nsamples = 518\nvalue = [46, 472]\nclass = male"] ;
510 -> 518 ;
519 [label="hand-held_computer <= 0.027\ngini = 0.153\nsamples = 514\nvalue = [43, 471]\nclass = male"] ;
518 -> 519 ;
520 [label="feather_boa <= 0.016\ngini = 0.145\nsamples = 510\nvalue = [40, 470]\nclass = male"] ;
519 -> 520 ;
521 [label="poncho <= 0.014\ngini = 0.138\nsamples = 508\nvalue = [38, 470]\nclass = male"] ;
520 -> 521 ;
522 [label="window_shade <= 0.025\ngini = 0.132\nsamples = 506\nvalue = [36, 470]\nclass = male"] ;
521 -> 522 ;
523 [label="espresso <= 0.009\ngini = 0.126\nsamples = 504\nvalue = [34, 470]\nclass = male"] ;
522 -> 523 ;
524 [label="iron <= 0.006\ngini = 0.117\nsamples = 499\nvalue = [31, 468]\nclass = male"] ;
523 -> 524 ;
525 [label="harp <= 0.001\ngini = 0.107\nsamples = 494\nvalue = [28, 466]\nclass = male"] ;
524 -> 525 ;
526 [label="Windsor_tie <= 0.036\ngini = 0.075\nsamples = 438\nvalue = [17, 421]\nclass = male"] ;
525 -> 526 ;
527 [label="platypus <= 0.001\ngini = 0.055\nsamples = 424\nvalue = [12, 412]\nclass = male"] ;
526 -> 527 ;
528 [label="wood_rabbit <= 0.01\ngini = 0.051\nsamples = 423\nvalue = [11, 412]\nclass = male"] ;
527 -> 528 ;
529 [label="crash_helmet <= 0.0\ngini = 0.046\nsamples = 422\nvalue = [10, 412]\nclass = male"] ;
528 -> 529 ;
530 [label="gini = 0.0\nsamples = 1\nvalue = [1, 0]\nclass = female"] ;
529 -> 530 ;
531 [label="gondola <= 0.053\ngini = 0.042\nsamples = 421\nvalue = [9, 412]\nclass = male"] ;
529 -> 531 ;
532 [label="soccer_ball <= 0.254\ngini = 0.037\nsamples = 420\nvalue = [8, 412]\nclass = male"] ;
531 -> 532 ;
533 [label="gibbon <= 0.004\ngini = 0.033\nsamples = 419\nvalue = [7, 412]\nclass = male"] ;
532 -> 533 ;
534 [label="butcher_shop <= 0.076\ngini = 0.028\nsamples = 418\nvalue = [6, 412]\nclass = male"] ;
533 -> 534 ;
535 [label="Band_Aid <= 0.089\ngini = 0.024\nsamples = 417\nvalue = [5, 412]\nclass = male"] ;
534 -> 535 ;
536 [label="horse_cart <= 0.034\ngini = 0.019\nsamples = 416\nvalue = [4, 412]\nclass = male"] ;
535 -> 536 ;
537 [label="rubber_eraser <= 0.009\ngini = 0.014\nsamples = 415\nvalue = [3, 412]\nclass = male"] ;
536 -> 537 ;
538 [label="dung_beetle <= 0.001\ngini = 0.005\nsamples = 408\nvalue = [1, 407]\nclass = male"] ;
537 -> 538 ;
539 [label="gini = 0.0\nsamples = 406\nvalue = [0, 406]\nclass = male"] ;
538 -> 539 ;
540 [label="Rhodesian_ridgeback <= 0.0\ngini = 0.5\nsamples = 2\nvalue = [1, 1]\nclass = female"] ;
538 -> 540 ;
541 [label="gini = 0.0\nsamples = 1\nvalue = [1, 0]\nclass = female"] ;
540 -> 541 ;
542 [label="gini = 0.0\nsamples = 1\nvalue = [0, 1]\nclass = male"] ;
540 -> 542 ;
543 [label="wig <= 0.001\ngini = 0.408\nsamples = 7\nvalue = [2, 5]\nclass = male"] ;
537 -> 543 ;
544 [label="gini = 0.0\nsamples = 5\nvalue = [0, 5]\nclass = male"] ;
543 -> 544 ;
545 [label="gini = 0.0\nsamples = 2\nvalue = [2, 0]\nclass = female"] ;
543 -> 545 ;
546 [label="gini = 0.0\nsamples = 1\nvalue = [1, 0]\nclass = female"] ;
536 -> 546 ;
547 [label="gini = 0.0\nsamples = 1\nvalue = [1, 0]\nclass = female"] ;
535 -> 547 ;
548 [label="gini = 0.0\nsamples = 1\nvalue = [1, 0]\nclass = female"] ;
534 -> 548 ;
549 [label="gini = 0.0\nsamples = 1\nvalue = [1, 0]\nclass = female"] ;
533 -> 549 ;
550 [label="gini = 0.0\nsamples = 1\nvalue = [1, 0]\nclass = female"] ;
532 -> 550 ;
551 [label="gini = 0.0\nsamples = 1\nvalue = [1, 0]\nclass = female"] ;
531 -> 551 ;
552 [label="gini = 0.0\nsamples = 1\nvalue = [1, 0]\nclass = female"] ;
528 -> 552 ;
553 [label="gini = 0.0\nsamples = 1\nvalue = [1, 0]\nclass = female"] ;
527 -> 553 ;
554 [label="trailer_truck <= 0.0\ngini = 0.459\nsamples = 14\nvalue = [5, 9]\nclass = male"] ;
526 -> 554 ;
555 [label="bighorn <= 0.0\ngini = 0.278\nsamples = 6\nvalue = [5, 1]\nclass = female"] ;
554 -> 555 ;
556 [label="gini = 0.0\nsamples = 1\nvalue = [0, 1]\nclass = male"] ;
555 -> 556 ;
557 [label="gini = 0.0\nsamples = 5\nvalue = [5, 0]\nclass = female"] ;
555 -> 557 ;
558 [label="gini = 0.0\nsamples = 8\nvalue = [0, 8]\nclass = male"] ;
554 -> 558 ;
559 [label="go-kart <= 0.0\ngini = 0.316\nsamples = 56\nvalue = [11, 45]\nclass = male"] ;
525 -> 559 ;
560 [label="hammer <= 0.001\ngini = 0.42\nsamples = 10\nvalue = [7, 3]\nclass = female"] ;
559 -> 560 ;
561 [label="gini = 0.0\nsamples = 7\nvalue = [7, 0]\nclass = female"] ;
560 -> 561 ;
562 [label="gini = 0.0\nsamples = 3\nvalue = [0, 3]\nclass = male"] ;
560 -> 562 ;
563 [label="balloon <= 0.018\ngini = 0.159\nsamples = 46\nvalue = [4, 42]\nclass = male"] ;
559 -> 563 ;
564 [label="custard_apple <= 0.0\ngini = 0.045\nsamples = 43\nvalue = [1, 42]\nclass = male"] ;
563 -> 564 ;
565 [label="gini = 0.0\nsamples = 42\nvalue = [0, 42]\nclass = male"] ;
564 -> 565 ;
566 [label="gini = 0.0\nsamples = 1\nvalue = [1, 0]\nclass = female"] ;
564 -> 566 ;
567 [label="gini = 0.0\nsamples = 3\nvalue = [3, 0]\nclass = female"] ;
563 -> 567 ;
568 [label="earthstar <= 0.0\ngini = 0.48\nsamples = 5\nvalue = [3, 2]\nclass = female"] ;
524 -> 568 ;
569 [label="gini = 0.0\nsamples = 2\nvalue = [0, 2]\nclass = male"] ;
568 -> 569 ;
570 [label="gini = 0.0\nsamples = 3\nvalue = [3, 0]\nclass = female"] ;
568 -> 570 ;
571 [label="neck_brace <= 0.002\ngini = 0.48\nsamples = 5\nvalue = [3, 2]\nclass = female"] ;
523 -> 571 ;
572 [label="gini = 0.0\nsamples = 2\nvalue = [0, 2]\nclass = male"] ;
571 -> 572 ;
573 [label="gini = 0.0\nsamples = 3\nvalue = [3, 0]\nclass = female"] ;
571 -> 573 ;
574 [label="gini = 0.0\nsamples = 2\nvalue = [2, 0]\nclass = female"] ;
522 -> 574 ;
575 [label="gini = 0.0\nsamples = 2\nvalue = [2, 0]\nclass = female"] ;
521 -> 575 ;
576 [label="gini = 0.0\nsamples = 2\nvalue = [2, 0]\nclass = female"] ;
520 -> 576 ;
577 [label="birdhouse <= 0.0\ngini = 0.375\nsamples = 4\nvalue = [3, 1]\nclass = female"] ;
519 -> 577 ;
578 [label="gini = 0.0\nsamples = 1\nvalue = [0, 1]\nclass = male"] ;
577 -> 578 ;
579 [label="gini = 0.0\nsamples = 3\nvalue = [3, 0]\nclass = female"] ;
577 -> 579 ;
580 [label="fireboat <= 0.0\ngini = 0.375\nsamples = 4\nvalue = [3, 1]\nclass = female"] ;
518 -> 580 ;
581 [label="gini = 0.0\nsamples = 3\nvalue = [3, 0]\nclass = female"] ;
580 -> 581 ;
582 [label="gini = 0.0\nsamples = 1\nvalue = [0, 1]\nclass = male"] ;
580 -> 582 ;
583 [label="bullet_train <= 0.0\ngini = 0.469\nsamples = 8\nvalue = [5, 3]\nclass = female"] ;
509 -> 583 ;
584 [label="gini = 0.0\nsamples = 3\nvalue = [0, 3]\nclass = male"] ;
583 -> 584 ;
585 [label="gini = 0.0\nsamples = 5\nvalue = [5, 0]\nclass = female"] ;
583 -> 585 ;
586 [label="gini = 0.0\nsamples = 3\nvalue = [3, 0]\nclass = female"] ;
508 -> 586 ;
587 [label="Samoyed <= 0.0\ngini = 0.408\nsamples = 7\nvalue = [5, 2]\nclass = female"] ;
495 -> 587 ;
588 [label="gini = 0.0\nsamples = 5\nvalue = [5, 0]\nclass = female"] ;
587 -> 588 ;
589 [label="gini = 0.0\nsamples = 2\nvalue = [0, 2]\nclass = male"] ;
587 -> 589 ;
590 [label="sea_urchin <= 0.0\ngini = 0.487\nsamples = 31\nvalue = [13, 18]\nclass = male"] ;
494 -> 590 ;
591 [label="gas_pump <= 0.022\ngini = 0.124\nsamples = 15\nvalue = [1, 14]\nclass = male"] ;
590 -> 591 ;
592 [label="gini = 0.0\nsamples = 14\nvalue = [0, 14]\nclass = male"] ;
591 -> 592 ;
593 [label="gini = 0.0\nsamples = 1\nvalue = [1, 0]\nclass = female"] ;
591 -> 593 ;
594 [label="fireboat <= 0.0\ngini = 0.375\nsamples = 16\nvalue = [12, 4]\nclass = female"] ;
590 -> 594 ;
595 [label="gini = 0.0\nsamples = 11\nvalue = [11, 0]\nclass = female"] ;
594 -> 595 ;
596 [label="trifle <= 0.0\ngini = 0.32\nsamples = 5\nvalue = [1, 4]\nclass = male"] ;
594 -> 596 ;
597 [label="gini = 0.0\nsamples = 1\nvalue = [1, 0]\nclass = female"] ;
596 -> 597 ;
598 [label="gini = 0.0\nsamples = 4\nvalue = [0, 4]\nclass = male"] ;
596 -> 598 ;
599 [label="ballpoint <= 0.0\ngini = 0.444\nsamples = 12\nvalue = [8, 4]\nclass = female"] ;
493 -> 599 ;
600 [label="gini = 0.0\nsamples = 4\nvalue = [0, 4]\nclass = male"] ;
599 -> 600 ;
601 [label="gini = 0.0\nsamples = 8\nvalue = [8, 0]\nclass = female"] ;
599 -> 601 ;
602 [label="American_chameleon <= 0.0\ngini = 0.5\nsamples = 28\nvalue = [14, 14]\nclass = female"] ;
492 -> 602 ;
603 [label="lifeboat <= 0.0\ngini = 0.153\nsamples = 12\nvalue = [11, 1]\nclass = female"] ;
602 -> 603 ;
604 [label="gini = 0.0\nsamples = 1\nvalue = [0, 1]\nclass = male"] ;
603 -> 604 ;
605 [label="gini = 0.0\nsamples = 11\nvalue = [11, 0]\nclass = female"] ;
603 -> 605 ;
606 [label="sturgeon <= 0.0\ngini = 0.305\nsamples = 16\nvalue = [3, 13]\nclass = male"] ;
602 -> 606 ;
607 [label="gini = 0.0\nsamples = 3\nvalue = [3, 0]\nclass = female"] ;
606 -> 607 ;
608 [label="gini = 0.0\nsamples = 13\nvalue = [0, 13]\nclass = male"] ;
606 -> 608 ;
609 [label="promontory <= 0.0\ngini = 0.481\nsamples = 72\nvalue = [29, 43]\nclass = male"] ;
491 -> 609 ;
610 [label="otterhound <= 0.0\ngini = 0.307\nsamples = 37\nvalue = [7, 30]\nclass = male"] ;
609 -> 610 ;
611 [label="guillotine <= 0.0\ngini = 0.165\nsamples = 33\nvalue = [3, 30]\nclass = male"] ;
610 -> 611 ;
612 [label="gini = 0.0\nsamples = 2\nvalue = [2, 0]\nclass = female"] ;
611 -> 612 ;
613 [label="toaster <= 0.002\ngini = 0.062\nsamples = 31\nvalue = [1, 30]\nclass = male"] ;
611 -> 613 ;
614 [label="gini = 0.0\nsamples = 30\nvalue = [0, 30]\nclass = male"] ;
613 -> 614 ;
615 [label="gini = 0.0\nsamples = 1\nvalue = [1, 0]\nclass = female"] ;
613 -> 615 ;
616 [label="gini = 0.0\nsamples = 4\nvalue = [4, 0]\nclass = female"] ;
610 -> 616 ;
617 [label="conch <= 0.001\ngini = 0.467\nsamples = 35\nvalue = [22, 13]\nclass = female"] ;
609 -> 617 ;
618 [label="football_helmet <= 0.004\ngini = 0.346\nsamples = 27\nvalue = [21, 6]\nclass = female"] ;
617 -> 618 ;
619 [label="hammer <= 0.01\ngini = 0.159\nsamples = 23\nvalue = [21, 2]\nclass = female"] ;
618 -> 619 ;
620 [label="gini = 0.0\nsamples = 21\nvalue = [21, 0]\nclass = female"] ;
619 -> 620 ;
621 [label="gini = 0.0\nsamples = 2\nvalue = [0, 2]\nclass = male"] ;
619 -> 621 ;
622 [label="gini = 0.0\nsamples = 4\nvalue = [0, 4]\nclass = male"] ;
618 -> 622 ;
623 [label="weevil <= 0.0\ngini = 0.219\nsamples = 8\nvalue = [1, 7]\nclass = male"] ;
617 -> 623 ;
624 [label="gini = 0.0\nsamples = 1\nvalue = [1, 0]\nclass = female"] ;
623 -> 624 ;
625 [label="gini = 0.0\nsamples = 7\nvalue = [0, 7]\nclass = male"] ;
623 -> 625 ;
626 [label="carousel <= 0.001\ngini = 0.444\nsamples = 18\nvalue = [12, 6]\nclass = female"] ;
490 -> 626 ;
627 [label="lighter <= 0.001\ngini = 0.245\nsamples = 14\nvalue = [12, 2]\nclass = female"] ;
626 -> 627 ;
628 [label="gini = 0.0\nsamples = 12\nvalue = [12, 0]\nclass = female"] ;
627 -> 628 ;
629 [label="gini = 0.0\nsamples = 2\nvalue = [0, 2]\nclass = male"] ;
627 -> 629 ;
630 [label="gini = 0.0\nsamples = 4\nvalue = [0, 4]\nclass = male"] ;
626 -> 630 ;
631 [label="silky_terrier <= 0.0\ngini = 0.478\nsamples = 314\nvalue = [124, 190]\nclass = male"] ;
489 -> 631 ;
632 [label="lotion <= 0.002\ngini = 0.442\nsamples = 255\nvalue = [84, 171]\nclass = male"] ;
631 -> 632 ;
633 [label="green_mamba <= 0.0\ngini = 0.385\nsamples = 211\nvalue = [55, 156]\nclass = male"] ;
632 -> 633 ;
634 [label="Walker_hound <= 0.0\ngini = 0.278\nsamples = 12\nvalue = [10, 2]\nclass = female"] ;
633 -> 634 ;
635 [label="gini = 0.0\nsamples = 2\nvalue = [0, 2]\nclass = male"] ;
634 -> 635 ;
636 [label="gini = 0.0\nsamples = 10\nvalue = [10, 0]\nclass = female"] ;
634 -> 636 ;
637 [label="Shih-Tzu <= 0.0\ngini = 0.35\nsamples = 199\nvalue = [45, 154]\nclass = male"] ;
633 -> 637 ;
638 [label="turnstile <= 0.014\ngini = 0.315\nsamples = 189\nvalue = [37, 152]\nclass = male"] ;
637 -> 638 ;
639 [label="flagpole <= 0.01\ngini = 0.293\nsamples = 185\nvalue = [33, 152]\nclass = male"] ;
638 -> 639 ;
640 [label="ringneck_snake <= 0.0\ngini = 0.26\nsamples = 176\nvalue = [27, 149]\nclass = male"] ;
639 -> 640 ;
641 [label="gini = 0.0\nsamples = 3\nvalue = [3, 0]\nclass = female"] ;
640 -> 641 ;
642 [label="necklace <= 0.0\ngini = 0.239\nsamples = 173\nvalue = [24, 149]\nclass = male"] ;
640 -> 642 ;
643 [label="common_iguana <= 0.0\ngini = 0.079\nsamples = 97\nvalue = [4, 93]\nclass = male"] ;
642 -> 643 ;
644 [label="kit_fox <= 0.0\ngini = 0.041\nsamples = 95\nvalue = [2, 93]\nclass = male"] ;
643 -> 644 ;
645 [label="aircraft_carrier <= 0.011\ngini = 0.021\nsamples = 94\nvalue = [1, 93]\nclass = male"] ;
644 -> 645 ;
646 [label="gini = 0.0\nsamples = 93\nvalue = [0, 93]\nclass = male"] ;
645 -> 646 ;
647 [label="gini = 0.0\nsamples = 1\nvalue = [1, 0]\nclass = female"] ;
645 -> 647 ;
648 [label="gini = 0.0\nsamples = 1\nvalue = [1, 0]\nclass = female"] ;
644 -> 648 ;
649 [label="gini = 0.0\nsamples = 2\nvalue = [2, 0]\nclass = female"] ;
643 -> 649 ;
650 [label="night_snake <= 0.0\ngini = 0.388\nsamples = 76\nvalue = [20, 56]\nclass = male"] ;
642 -> 650 ;
651 [label="cello <= 0.0\ngini = 0.497\nsamples = 26\nvalue = [14, 12]\nclass = female"] ;
650 -> 651 ;
652 [label="gini = 0.0\nsamples = 8\nvalue = [0, 8]\nclass = male"] ;
651 -> 652 ;
653 [label="mortarboard <= 0.004\ngini = 0.346\nsamples = 18\nvalue = [14, 4]\nclass = female"] ;
651 -> 653 ;
654 [label="gini = 0.0\nsamples = 13\nvalue = [13, 0]\nclass = female"] ;
653 -> 654 ;
655 [label="balloon <= 0.001\ngini = 0.32\nsamples = 5\nvalue = [1, 4]\nclass = male"] ;
653 -> 655 ;
656 [label="gini = 0.0\nsamples = 4\nvalue = [0, 4]\nclass = male"] ;
655 -> 656 ;
657 [label="gini = 0.0\nsamples = 1\nvalue = [1, 0]\nclass = female"] ;
655 -> 657 ;
658 [label="flamingo <= 0.0\ngini = 0.211\nsamples = 50\nvalue = [6, 44]\nclass = male"] ;
650 -> 658 ;
659 [label="harvester <= 0.0\ngini = 0.494\nsamples = 9\nvalue = [5, 4]\nclass = female"] ;
658 -> 659 ;
660 [label="gini = 0.0\nsamples = 5\nvalue = [5, 0]\nclass = female"] ;
659 -> 660 ;
661 [label="gini = 0.0\nsamples = 4\nvalue = [0, 4]\nclass = male"] ;
659 -> 661 ;
662 [label="feather_boa <= 0.011\ngini = 0.048\nsamples = 41\nvalue = [1, 40]\nclass = male"] ;
658 -> 662 ;
663 [label="gini = 0.0\nsamples = 40\nvalue = [0, 40]\nclass = male"] ;
662 -> 663 ;
664 [label="gini = 0.0\nsamples = 1\nvalue = [1, 0]\nclass = female"] ;
662 -> 664 ;
665 [label="harp <= 0.001\ngini = 0.444\nsamples = 9\nvalue = [6, 3]\nclass = female"] ;
639 -> 665 ;
666 [label="gini = 0.0\nsamples = 6\nvalue = [6, 0]\nclass = female"] ;
665 -> 666 ;
667 [label="gini = 0.0\nsamples = 3\nvalue = [0, 3]\nclass = male"] ;
665 -> 667 ;
668 [label="gini = 0.0\nsamples = 4\nvalue = [4, 0]\nclass = female"] ;
638 -> 668 ;
669 [label="cowboy_hat <= 0.002\ngini = 0.32\nsamples = 10\nvalue = [8, 2]\nclass = female"] ;
637 -> 669 ;
670 [label="gini = 0.0\nsamples = 8\nvalue = [8, 0]\nclass = female"] ;
669 -> 670 ;
671 [label="gini = 0.0\nsamples = 2\nvalue = [0, 2]\nclass = male"] ;
669 -> 671 ;
672 [label="tiger_shark <= 0.0\ngini = 0.449\nsamples = 44\nvalue = [29, 15]\nclass = female"] ;
632 -> 672 ;
673 [label="banjo <= 0.002\ngini = 0.231\nsamples = 30\nvalue = [26, 4]\nclass = female"] ;
672 -> 673 ;
674 [label="Brittany_spaniel <= 0.0\ngini = 0.071\nsamples = 27\nvalue = [26, 1]\nclass = female"] ;
673 -> 674 ;
675 [label="gini = 0.0\nsamples = 1\nvalue = [0, 1]\nclass = male"] ;
674 -> 675 ;
676 [label="gini = 0.0\nsamples = 26\nvalue = [26, 0]\nclass = female"] ;
674 -> 676 ;
677 [label="gini = 0.0\nsamples = 3\nvalue = [0, 3]\nclass = male"] ;
673 -> 677 ;
678 [label="fire_screen <= 0.0\ngini = 0.337\nsamples = 14\nvalue = [3, 11]\nclass = male"] ;
672 -> 678 ;
679 [label="gini = 0.0\nsamples = 11\nvalue = [0, 11]\nclass = male"] ;
678 -> 679 ;
680 [label="gini = 0.0\nsamples = 3\nvalue = [3, 0]\nclass = female"] ;
678 -> 680 ;
681 [label="porcupine <= 0.0\ngini = 0.437\nsamples = 59\nvalue = [40, 19]\nclass = female"] ;
631 -> 681 ;
682 [label="brass <= 0.0\ngini = 0.473\nsamples = 26\nvalue = [10, 16]\nclass = male"] ;
681 -> 682 ;
683 [label="feather_boa <= 0.0\ngini = 0.32\nsamples = 10\nvalue = [8, 2]\nclass = female"] ;
682 -> 683 ;
684 [label="gini = 0.0\nsamples = 2\nvalue = [0, 2]\nclass = male"] ;
683 -> 684 ;
685 [label="gini = 0.0\nsamples = 8\nvalue = [8, 0]\nclass = female"] ;
683 -> 685 ;
686 [label="Lakeland_terrier <= 0.0\ngini = 0.219\nsamples = 16\nvalue = [2, 14]\nclass = male"] ;
682 -> 686 ;
687 [label="gini = 0.0\nsamples = 2\nvalue = [2, 0]\nclass = female"] ;
686 -> 687 ;
688 [label="gini = 0.0\nsamples = 14\nvalue = [0, 14]\nclass = male"] ;
686 -> 688 ;
689 [label="running_shoe <= 0.001\ngini = 0.165\nsamples = 33\nvalue = [30, 3]\nclass = female"] ;
681 -> 689 ;
690 [label="gini = 0.0\nsamples = 30\nvalue = [30, 0]\nclass = female"] ;
689 -> 690 ;
691 [label="gini = 0.0\nsamples = 3\nvalue = [0, 3]\nclass = male"] ;
689 -> 691 ;
692 [label="wig <= 0.003\ngini = 0.452\nsamples = 2597\nvalue = [1701, 896]\nclass = female"] ;
0 -> 692 [labeldistance=2.5, labelangle=-45, headlabel="False"] ;
693 [label="ballplayer <= 0.0\ngini = 0.499\nsamples = 1130\nvalue = [585, 545]\nclass = female"] ;
692 -> 693 ;
694 [label="hair_spray <= 0.001\ngini = 0.455\nsamples = 472\nvalue = [307, 165]\nclass = female"] ;
693 -> 694 ;
695 [label="American_coot <= 0.0\ngini = 0.499\nsamples = 160\nvalue = [77, 83]\nclass = male"] ;
694 -> 695 ;
696 [label="manhole_cover <= 0.0\ngini = 0.393\nsamples = 52\nvalue = [38, 14]\nclass = female"] ;
695 -> 696 ;
697 [label="gini = 0.0\nsamples = 6\nvalue = [0, 6]\nclass = male"] ;
696 -> 697 ;
698 [label="horned_viper <= 0.0\ngini = 0.287\nsamples = 46\nvalue = [38, 8]\nclass = female"] ;
696 -> 698 ;
699 [label="cash_machine <= 0.003\ngini = 0.105\nsamples = 36\nvalue = [34, 2]\nclass = female"] ;
698 -> 699 ;
700 [label="gini = 0.0\nsamples = 34\nvalue = [34, 0]\nclass = female"] ;
699 -> 700 ;
701 [label="gini = 0.0\nsamples = 2\nvalue = [0, 2]\nclass = male"] ;
699 -> 701 ;
702 [label="throne <= 0.002\ngini = 0.48\nsamples = 10\nvalue = [4, 6]\nclass = male"] ;
698 -> 702 ;
703 [label="gini = 0.0\nsamples = 6\nvalue = [0, 6]\nclass = male"] ;
702 -> 703 ;
704 [label="gini = 0.0\nsamples = 4\nvalue = [4, 0]\nclass = female"] ;
702 -> 704 ;
705 [label="Norwich_terrier <= 0.0\ngini = 0.461\nsamples = 108\nvalue = [39, 69]\nclass = male"] ;
695 -> 705 ;
706 [label="pickelhaube <= 0.0\ngini = 0.384\nsamples = 85\nvalue = [22, 63]\nclass = male"] ;
705 -> 706 ;
707 [label="Model_T <= 0.0\ngini = 0.455\nsamples = 20\nvalue = [13, 7]\nclass = female"] ;
706 -> 707 ;
708 [label="Newfoundland <= 0.001\ngini = 0.153\nsamples = 12\nvalue = [11, 1]\nclass = female"] ;
707 -> 708 ;
709 [label="gini = 0.0\nsamples = 11\nvalue = [11, 0]\nclass = female"] ;
708 -> 709 ;
710 [label="gini = 0.0\nsamples = 1\nvalue = [0, 1]\nclass = male"] ;
708 -> 710 ;
711 [label="printer <= 0.001\ngini = 0.375\nsamples = 8\nvalue = [2, 6]\nclass = male"] ;
707 -> 711 ;
712 [label="gini = 0.0\nsamples = 6\nvalue = [0, 6]\nclass = male"] ;
711 -> 712 ;
713 [label="gini = 0.0\nsamples = 2\nvalue = [2, 0]\nclass = female"] ;
711 -> 713 ;
714 [label="crate <= 0.0\ngini = 0.239\nsamples = 65\nvalue = [9, 56]\nclass = male"] ;
706 -> 714 ;
715 [label="gini = 0.0\nsamples = 3\nvalue = [3, 0]\nclass = female"] ;
714 -> 715 ;
716 [label="binoculars <= 0.002\ngini = 0.175\nsamples = 62\nvalue = [6, 56]\nclass = male"] ;
714 -> 716 ;
717 [label="Staffordshire_bullterrier <= 0.001\ngini = 0.098\nsamples = 58\nvalue = [3, 55]\nclass = male"] ;
716 -> 717 ;
718 [label="black-footed_ferret <= 0.0\ngini = 0.035\nsamples = 56\nvalue = [1, 55]\nclass = male"] ;
717 -> 718 ;
719 [label="gini = 0.0\nsamples = 1\nvalue = [1, 0]\nclass = female"] ;
718 -> 719 ;
720 [label="gini = 0.0\nsamples = 55\nvalue = [0, 55]\nclass = male"] ;
718 -> 720 ;
721 [label="gini = 0.0\nsamples = 2\nvalue = [2, 0]\nclass = female"] ;
717 -> 721 ;
722 [label="pajama <= 0.003\ngini = 0.375\nsamples = 4\nvalue = [3, 1]\nclass = female"] ;
716 -> 722 ;
723 [label="gini = 0.0\nsamples = 3\nvalue = [3, 0]\nclass = female"] ;
722 -> 723 ;
724 [label="gini = 0.0\nsamples = 1\nvalue = [0, 1]\nclass = male"] ;
722 -> 724 ;
725 [label="sloth_bear <= 0.0\ngini = 0.386\nsamples = 23\nvalue = [17, 6]\nclass = female"] ;
705 -> 725 ;
726 [label="gini = 0.0\nsamples = 4\nvalue = [0, 4]\nclass = male"] ;
725 -> 726 ;
727 [label="racket <= 0.001\ngini = 0.188\nsamples = 19\nvalue = [17, 2]\nclass = female"] ;
725 -> 727 ;
728 [label="gini = 0.0\nsamples = 17\nvalue = [17, 0]\nclass = female"] ;
727 -> 728 ;
729 [label="gini = 0.0\nsamples = 2\nvalue = [0, 2]\nclass = male"] ;
727 -> 729 ;
730 [label="cornet <= 0.001\ngini = 0.387\nsamples = 312\nvalue = [230, 82]\nclass = female"] ;
694 -> 730 ;
731 [label="shower_cap <= 0.001\ngini = 0.287\nsamples = 213\nvalue = [176, 37]\nclass = female"] ;
730 -> 731 ;
732 [label="alp <= 0.013\ngini = 0.187\nsamples = 163\nvalue = [146, 17]\nclass = female"] ;
731 -> 732 ;
733 [label="panpipe <= 0.002\ngini = 0.151\nsamples = 158\nvalue = [145, 13]\nclass = female"] ;
732 -> 733 ;
734 [label="bearskin <= 0.002\ngini = 0.111\nsamples = 153\nvalue = [144, 9]\nclass = female"] ;
733 -> 734 ;
735 [label="wolf_spider <= 0.0\ngini = 0.077\nsamples = 149\nvalue = [143, 6]\nclass = female"] ;
734 -> 735 ;
736 [label="mortarboard <= 0.007\ngini = 0.053\nsamples = 147\nvalue = [143, 4]\nclass = female"] ;
735 -> 736 ;
737 [label="waffle_iron <= 0.018\ngini = 0.014\nsamples = 139\nvalue = [138, 1]\nclass = female"] ;
736 -> 737 ;
738 [label="gini = 0.0\nsamples = 138\nvalue = [138, 0]\nclass = female"] ;
737 -> 738 ;
739 [label="gini = 0.0\nsamples = 1\nvalue = [0, 1]\nclass = male"] ;
737 -> 739 ;
740 [label="wallaby <= 0.0\ngini = 0.469\nsamples = 8\nvalue = [5, 3]\nclass = female"] ;
736 -> 740 ;
741 [label="gini = 0.0\nsamples = 3\nvalue = [0, 3]\nclass = male"] ;
740 -> 741 ;
742 [label="gini = 0.0\nsamples = 5\nvalue = [5, 0]\nclass = female"] ;
740 -> 742 ;
743 [label="gini = 0.0\nsamples = 2\nvalue = [0, 2]\nclass = male"] ;
735 -> 743 ;
744 [label="harvestman <= 0.0\ngini = 0.375\nsamples = 4\nvalue = [1, 3]\nclass = male"] ;
734 -> 744 ;
745 [label="gini = 0.0\nsamples = 1\nvalue = [1, 0]\nclass = female"] ;
744 -> 745 ;
746 [label="gini = 0.0\nsamples = 3\nvalue = [0, 3]\nclass = male"] ;
744 -> 746 ;
747 [label="pool_table <= 0.001\ngini = 0.32\nsamples = 5\nvalue = [1, 4]\nclass = male"] ;
733 -> 747 ;
748 [label="gini = 0.0\nsamples = 4\nvalue = [0, 4]\nclass = male"] ;
747 -> 748 ;
749 [label="gini = 0.0\nsamples = 1\nvalue = [1, 0]\nclass = female"] ;
747 -> 749 ;
750 [label="spindle <= 0.0\ngini = 0.32\nsamples = 5\nvalue = [1, 4]\nclass = male"] ;
732 -> 750 ;
751 [label="gini = 0.0\nsamples = 4\nvalue = [0, 4]\nclass = male"] ;
750 -> 751 ;
752 [label="gini = 0.0\nsamples = 1\nvalue = [1, 0]\nclass = female"] ;
750 -> 752 ;
753 [label="revolver <= 0.001\ngini = 0.48\nsamples = 50\nvalue = [30, 20]\nclass = female"] ;
731 -> 753 ;
754 [label="Scotch_terrier <= 0.0\ngini = 0.381\nsamples = 39\nvalue = [29, 10]\nclass = female"] ;
753 -> 754 ;
755 [label="bath_towel <= 0.0\ngini = 0.284\nsamples = 35\nvalue = [29, 6]\nclass = female"] ;
754 -> 755 ;
756 [label="hartebeest <= 0.0\ngini = 0.32\nsamples = 5\nvalue = [1, 4]\nclass = male"] ;
755 -> 756 ;
757 [label="gini = 0.0\nsamples = 4\nvalue = [0, 4]\nclass = male"] ;
756 -> 757 ;
758 [label="gini = 0.0\nsamples = 1\nvalue = [1, 0]\nclass = female"] ;
756 -> 758 ;
759 [label="four-poster <= 0.002\ngini = 0.124\nsamples = 30\nvalue = [28, 2]\nclass = female"] ;
755 -> 759 ;
760 [label="gini = 0.0\nsamples = 27\nvalue = [27, 0]\nclass = female"] ;
759 -> 760 ;
761 [label="thunder_snake <= 0.0\ngini = 0.444\nsamples = 3\nvalue = [1, 2]\nclass = male"] ;
759 -> 761 ;
762 [label="gini = 0.0\nsamples = 2\nvalue = [0, 2]\nclass = male"] ;
761 -> 762 ;
763 [label="gini = 0.0\nsamples = 1\nvalue = [1, 0]\nclass = female"] ;
761 -> 763 ;
764 [label="gini = 0.0\nsamples = 4\nvalue = [0, 4]\nclass = male"] ;
754 -> 764 ;
765 [label="rock_python <= 0.0\ngini = 0.165\nsamples = 11\nvalue = [1, 10]\nclass = male"] ;
753 -> 765 ;
766 [label="gini = 0.0\nsamples = 10\nvalue = [0, 10]\nclass = male"] ;
765 -> 766 ;
767 [label="gini = 0.0\nsamples = 1\nvalue = [1, 0]\nclass = female"] ;
765 -> 767 ;
768 [label="crutch <= 0.002\ngini = 0.496\nsamples = 99\nvalue = [54, 45]\nclass = female"] ;
730 -> 768 ;
769 [label="bow_tie <= 0.004\ngini = 0.426\nsamples = 65\nvalue = [45, 20]\nclass = female"] ;
768 -> 769 ;
770 [label="ballpoint <= 0.002\ngini = 0.48\nsamples = 25\nvalue = [10, 15]\nclass = male"] ;
769 -> 770 ;
771 [label="throne <= 0.001\ngini = 0.332\nsamples = 19\nvalue = [4, 15]\nclass = male"] ;
770 -> 771 ;
772 [label="common_iguana <= 0.0\ngini = 0.117\nsamples = 16\nvalue = [1, 15]\nclass = male"] ;
771 -> 772 ;
773 [label="gini = 0.0\nsamples = 15\nvalue = [0, 15]\nclass = male"] ;
772 -> 773 ;
774 [label="gini = 0.0\nsamples = 1\nvalue = [1, 0]\nclass = female"] ;
772 -> 774 ;
775 [label="gini = 0.0\nsamples = 3\nvalue = [3, 0]\nclass = female"] ;
771 -> 775 ;
776 [label="gini = 0.0\nsamples = 6\nvalue = [6, 0]\nclass = female"] ;
770 -> 776 ;
777 [label="rugby_ball <= 0.0\ngini = 0.219\nsamples = 40\nvalue = [35, 5]\nclass = female"] ;
769 -> 777 ;
778 [label="gini = 0.0\nsamples = 32\nvalue = [32, 0]\nclass = female"] ;
777 -> 778 ;
779 [label="Bedlington_terrier <= 0.0\ngini = 0.469\nsamples = 8\nvalue = [3, 5]\nclass = male"] ;
777 -> 779 ;
780 [label="gini = 0.0\nsamples = 3\nvalue = [3, 0]\nclass = female"] ;
779 -> 780 ;
781 [label="gini = 0.0\nsamples = 5\nvalue = [0, 5]\nclass = male"] ;
779 -> 781 ;
782 [label="little_blue_heron <= 0.0\ngini = 0.389\nsamples = 34\nvalue = [9, 25]\nclass = male"] ;
768 -> 782 ;
783 [label="gini = 0.0\nsamples = 5\nvalue = [5, 0]\nclass = female"] ;
782 -> 783 ;
784 [label="rapeseed <= 0.0\ngini = 0.238\nsamples = 29\nvalue = [4, 25]\nclass = male"] ;
782 -> 784 ;
785 [label="gini = 0.0\nsamples = 24\nvalue = [0, 24]\nclass = male"] ;
784 -> 785 ;
786 [label="flagpole <= 0.001\ngini = 0.32\nsamples = 5\nvalue = [4, 1]\nclass = female"] ;
784 -> 786 ;
787 [label="gini = 0.0\nsamples = 4\nvalue = [4, 0]\nclass = female"] ;
786 -> 787 ;
788 [label="gini = 0.0\nsamples = 1\nvalue = [0, 1]\nclass = male"] ;
786 -> 788 ;
789 [label="maillot <= 0.0\ngini = 0.488\nsamples = 658\nvalue = [278, 380]\nclass = male"] ;
693 -> 789 ;
790 [label="Sealyham_terrier <= 0.0\ngini = 0.347\nsamples = 170\nvalue = [38, 132]\nclass = male"] ;
789 -> 790 ;
791 [label="television <= 0.0\ngini = 0.289\nsamples = 154\nvalue = [27, 127]\nclass = male"] ;
790 -> 791 ;
792 [label="rock_python <= 0.0\ngini = 0.42\nsamples = 10\nvalue = [7, 3]\nclass = female"] ;
791 -> 792 ;
793 [label="gini = 0.0\nsamples = 7\nvalue = [7, 0]\nclass = female"] ;
792 -> 793 ;
794 [label="gini = 0.0\nsamples = 3\nvalue = [0, 3]\nclass = male"] ;
792 -> 794 ;
795 [label="pencil_box <= 0.006\ngini = 0.239\nsamples = 144\nvalue = [20, 124]\nclass = male"] ;
791 -> 795 ;
796 [label="Windsor_tie <= 0.0\ngini = 0.194\nsamples = 138\nvalue = [15, 123]\nclass = male"] ;
795 -> 796 ;
797 [label="solar_dish <= 0.0\ngini = 0.498\nsamples = 17\nvalue = [8, 9]\nclass = male"] ;
796 -> 797 ;
798 [label="wardrobe <= 0.001\ngini = 0.18\nsamples = 10\nvalue = [1, 9]\nclass = male"] ;
797 -> 798 ;
799 [label="gini = 0.0\nsamples = 9\nvalue = [0, 9]\nclass = male"] ;
798 -> 799 ;
800 [label="gini = 0.0\nsamples = 1\nvalue = [1, 0]\nclass = female"] ;
798 -> 800 ;
801 [label="gini = 0.0\nsamples = 7\nvalue = [7, 0]\nclass = female"] ;
797 -> 801 ;
802 [label="dial_telephone <= 0.004\ngini = 0.109\nsamples = 121\nvalue = [7, 114]\nclass = male"] ;
796 -> 802 ;
803 [label="swimming_trunks <= 0.005\ngini = 0.081\nsamples = 119\nvalue = [5, 114]\nclass = male"] ;
802 -> 803 ;
804 [label="green_snake <= 0.0\ngini = 0.05\nsamples = 117\nvalue = [3, 114]\nclass = male"] ;
803 -> 804 ;
805 [label="Bouvier_des_Flandres <= 0.003\ngini = 0.034\nsamples = 116\nvalue = [2, 114]\nclass = male"] ;
804 -> 805 ;
806 [label="home_theater <= 0.064\ngini = 0.017\nsamples = 115\nvalue = [1, 114]\nclass = male"] ;
805 -> 806 ;
807 [label="gini = 0.0\nsamples = 114\nvalue = [0, 114]\nclass = male"] ;
806 -> 807 ;
808 [label="gini = 0.0\nsamples = 1\nvalue = [1, 0]\nclass = female"] ;
806 -> 808 ;
809 [label="gini = 0.0\nsamples = 1\nvalue = [1, 0]\nclass = female"] ;
805 -> 809 ;
810 [label="gini = 0.0\nsamples = 1\nvalue = [1, 0]\nclass = female"] ;
804 -> 810 ;
811 [label="gini = 0.0\nsamples = 2\nvalue = [2, 0]\nclass = female"] ;
803 -> 811 ;
812 [label="gini = 0.0\nsamples = 2\nvalue = [2, 0]\nclass = female"] ;
802 -> 812 ;
813 [label="spiny_lobster <= 0.0\ngini = 0.278\nsamples = 6\nvalue = [5, 1]\nclass = female"] ;
795 -> 813 ;
814 [label="gini = 0.0\nsamples = 1\nvalue = [0, 1]\nclass = male"] ;
813 -> 814 ;
815 [label="gini = 0.0\nsamples = 5\nvalue = [5, 0]\nclass = female"] ;
813 -> 815 ;
816 [label="Chihuahua <= 0.001\ngini = 0.43\nsamples = 16\nvalue = [11, 5]\nclass = female"] ;
790 -> 816 ;
817 [label="Norwich_terrier <= 0.001\ngini = 0.153\nsamples = 12\nvalue = [11, 1]\nclass = female"] ;
816 -> 817 ;
818 [label="gini = 0.0\nsamples = 11\nvalue = [11, 0]\nclass = female"] ;
817 -> 818 ;
819 [label="gini = 0.0\nsamples = 1\nvalue = [0, 1]\nclass = male"] ;
817 -> 819 ;
820 [label="gini = 0.0\nsamples = 4\nvalue = [0, 4]\nclass = male"] ;
816 -> 820 ;
821 [label="bearskin <= 0.0\ngini = 0.5\nsamples = 488\nvalue = [240, 248]\nclass = male"] ;
789 -> 821 ;
822 [label="parking_meter <= 0.0\ngini = 0.452\nsamples = 180\nvalue = [118, 62]\nclass = female"] ;
821 -> 822 ;
823 [label="mantis <= 0.0\ngini = 0.482\nsamples = 52\nvalue = [21, 31]\nclass = male"] ;
822 -> 823 ;
824 [label="shoe_shop <= 0.0\ngini = 0.363\nsamples = 21\nvalue = [16, 5]\nclass = female"] ;
823 -> 824 ;
825 [label="gini = 0.0\nsamples = 4\nvalue = [0, 4]\nclass = male"] ;
824 -> 825 ;
826 [label="turnstile <= 0.002\ngini = 0.111\nsamples = 17\nvalue = [16, 1]\nclass = female"] ;
824 -> 826 ;
827 [label="gini = 0.0\nsamples = 16\nvalue = [16, 0]\nclass = female"] ;
826 -> 827 ;
828 [label="gini = 0.0\nsamples = 1\nvalue = [0, 1]\nclass = male"] ;
826 -> 828 ;
829 [label="Australian_terrier <= 0.0\ngini = 0.271\nsamples = 31\nvalue = [5, 26]\nclass = male"] ;
823 -> 829 ;
830 [label="gini = 0.0\nsamples = 3\nvalue = [3, 0]\nclass = female"] ;
829 -> 830 ;
831 [label="mink <= 0.0\ngini = 0.133\nsamples = 28\nvalue = [2, 26]\nclass = male"] ;
829 -> 831 ;
832 [label="gini = 0.0\nsamples = 26\nvalue = [0, 26]\nclass = male"] ;
831 -> 832 ;
833 [label="gini = 0.0\nsamples = 2\nvalue = [2, 0]\nclass = female"] ;
831 -> 833 ;
834 [label="Border_terrier <= 0.0\ngini = 0.367\nsamples = 128\nvalue = [97, 31]\nclass = female"] ;
822 -> 834 ;
835 [label="Border_terrier <= 0.0\ngini = 0.481\nsamples = 67\nvalue = [40, 27]\nclass = female"] ;
834 -> 835 ;
836 [label="eggnog <= 0.0\ngini = 0.398\nsamples = 51\nvalue = [37, 14]\nclass = female"] ;
835 -> 836 ;
837 [label="flamingo <= 0.0\ngini = 0.426\nsamples = 13\nvalue = [4, 9]\nclass = male"] ;
836 -> 837 ;
838 [label="gini = 0.0\nsamples = 9\nvalue = [0, 9]\nclass = male"] ;
837 -> 838 ;
839 [label="gini = 0.0\nsamples = 4\nvalue = [4, 0]\nclass = female"] ;
837 -> 839 ;
840 [label="cleaver <= 0.003\ngini = 0.229\nsamples = 38\nvalue = [33, 5]\nclass = female"] ;
836 -> 840 ;
841 [label="mantis <= 0.0\ngini = 0.061\nsamples = 32\nvalue = [31, 1]\nclass = female"] ;
840 -> 841 ;
842 [label="gini = 0.0\nsamples = 31\nvalue = [31, 0]\nclass = female"] ;
841 -> 842 ;
843 [label="gini = 0.0\nsamples = 1\nvalue = [0, 1]\nclass = male"] ;
841 -> 843 ;
844 [label="flatworm <= 0.0\ngini = 0.444\nsamples = 6\nvalue = [2, 4]\nclass = male"] ;
840 -> 844 ;
845 [label="gini = 0.0\nsamples = 2\nvalue = [2, 0]\nclass = female"] ;
844 -> 845 ;
846 [label="gini = 0.0\nsamples = 4\nvalue = [0, 4]\nclass = male"] ;
844 -> 846 ;
847 [label="fire_screen <= 0.001\ngini = 0.305\nsamples = 16\nvalue = [3, 13]\nclass = male"] ;
835 -> 847 ;
848 [label="gini = 0.0\nsamples = 13\nvalue = [0, 13]\nclass = male"] ;
847 -> 848 ;
849 [label="gini = 0.0\nsamples = 3\nvalue = [3, 0]\nclass = female"] ;
847 -> 849 ;
850 [label="home_theater <= 0.007\ngini = 0.123\nsamples = 61\nvalue = [57, 4]\nclass = female"] ;
834 -> 850 ;
851 [label="ibex <= 0.0\ngini = 0.065\nsamples = 59\nvalue = [57, 2]\nclass = female"] ;
850 -> 851 ;
852 [label="gini = 0.0\nsamples = 56\nvalue = [56, 0]\nclass = female"] ;
851 -> 852 ;
853 [label="digital_watch <= 0.001\ngini = 0.444\nsamples = 3\nvalue = [1, 2]\nclass = male"] ;
851 -> 853 ;
854 [label="gini = 0.0\nsamples = 1\nvalue = [1, 0]\nclass = female"] ;
853 -> 854 ;
855 [label="gini = 0.0\nsamples = 2\nvalue = [0, 2]\nclass = male"] ;
853 -> 855 ;
856 [label="gini = 0.0\nsamples = 2\nvalue = [0, 2]\nclass = male"] ;
850 -> 856 ;
857 [label="tub <= 0.0\ngini = 0.478\nsamples = 308\nvalue = [122, 186]\nclass = male"] ;
821 -> 857 ;
858 [label="Airedale <= 0.0\ngini = 0.412\nsamples = 176\nvalue = [51, 125]\nclass = male"] ;
857 -> 858 ;
859 [label="viaduct <= 0.001\ngini = 0.369\nsamples = 160\nvalue = [39, 121]\nclass = male"] ;
858 -> 859 ;
860 [label="bassinet <= 0.0\ngini = 0.342\nsamples = 155\nvalue = [34, 121]\nclass = male"] ;
859 -> 860 ;
861 [label="sea_cucumber <= 0.0\ngini = 0.221\nsamples = 103\nvalue = [13, 90]\nclass = male"] ;
860 -> 861 ;
862 [label="space_shuttle <= 0.008\ngini = 0.167\nsamples = 98\nvalue = [9, 89]\nclass = male"] ;
861 -> 862 ;
863 [label="rapeseed <= 0.001\ngini = 0.135\nsamples = 96\nvalue = [7, 89]\nclass = male"] ;
862 -> 863 ;
864 [label="pole <= 0.008\ngini = 0.101\nsamples = 94\nvalue = [5, 89]\nclass = male"] ;
863 -> 864 ;
865 [label="lumbermill <= 0.004\ngini = 0.063\nsamples = 92\nvalue = [3, 89]\nclass = male"] ;
864 -> 865 ;
866 [label="stopwatch <= 0.006\ngini = 0.022\nsamples = 89\nvalue = [1, 88]\nclass = male"] ;
865 -> 866 ;
867 [label="gini = 0.0\nsamples = 88\nvalue = [0, 88]\nclass = male"] ;
866 -> 867 ;
868 [label="gini = 0.0\nsamples = 1\nvalue = [1, 0]\nclass = female"] ;
866 -> 868 ;
869 [label="chambered_nautilus <= 0.0\ngini = 0.444\nsamples = 3\nvalue = [2, 1]\nclass = female"] ;
865 -> 869 ;
870 [label="gini = 0.0\nsamples = 2\nvalue = [2, 0]\nclass = female"] ;
869 -> 870 ;
871 [label="gini = 0.0\nsamples = 1\nvalue = [0, 1]\nclass = male"] ;
869 -> 871 ;
872 [label="gini = 0.0\nsamples = 2\nvalue = [2, 0]\nclass = female"] ;
864 -> 872 ;
873 [label="gini = 0.0\nsamples = 2\nvalue = [2, 0]\nclass = female"] ;
863 -> 873 ;
874 [label="gini = 0.0\nsamples = 2\nvalue = [2, 0]\nclass = female"] ;
862 -> 874 ;
875 [label="ear <= 0.001\ngini = 0.32\nsamples = 5\nvalue = [4, 1]\nclass = female"] ;
861 -> 875 ;
876 [label="gini = 0.0\nsamples = 4\nvalue = [4, 0]\nclass = female"] ;
875 -> 876 ;
877 [label="gini = 0.0\nsamples = 1\nvalue = [0, 1]\nclass = male"] ;
875 -> 877 ;
878 [label="cellular_telephone <= 0.001\ngini = 0.482\nsamples = 52\nvalue = [21, 31]\nclass = male"] ;
860 -> 878 ;
879 [label="coral_reef <= 0.0\ngini = 0.305\nsamples = 32\nvalue = [6, 26]\nclass = male"] ;
878 -> 879 ;
880 [label="gini = 0.0\nsamples = 22\nvalue = [0, 22]\nclass = male"] ;
879 -> 880 ;
881 [label="reel <= 0.0\ngini = 0.48\nsamples = 10\nvalue = [6, 4]\nclass = female"] ;
879 -> 881 ;
882 [label="gini = 0.0\nsamples = 6\nvalue = [6, 0]\nclass = female"] ;
881 -> 882 ;
883 [label="gini = 0.0\nsamples = 4\nvalue = [0, 4]\nclass = male"] ;
881 -> 883 ;
884 [label="rain_barrel <= 0.0\ngini = 0.375\nsamples = 20\nvalue = [15, 5]\nclass = female"] ;
878 -> 884 ;
885 [label="Lhasa <= 0.0\ngini = 0.32\nsamples = 5\nvalue = [1, 4]\nclass = male"] ;
884 -> 885 ;
886 [label="gini = 0.0\nsamples = 4\nvalue = [0, 4]\nclass = male"] ;
885 -> 886 ;
887 [label="gini = 0.0\nsamples = 1\nvalue = [1, 0]\nclass = female"] ;
885 -> 887 ;
888 [label="throne <= 0.0\ngini = 0.124\nsamples = 15\nvalue = [14, 1]\nclass = female"] ;
884 -> 888 ;
889 [label="gini = 0.0\nsamples = 1\nvalue = [0, 1]\nclass = male"] ;
888 -> 889 ;
890 [label="gini = 0.0\nsamples = 14\nvalue = [14, 0]\nclass = female"] ;
888 -> 890 ;
891 [label="gini = 0.0\nsamples = 5\nvalue = [5, 0]\nclass = female"] ;
859 -> 891 ;
892 [label="daisy <= 0.0\ngini = 0.375\nsamples = 16\nvalue = [12, 4]\nclass = female"] ;
858 -> 892 ;
893 [label="gini = 0.0\nsamples = 3\nvalue = [0, 3]\nclass = male"] ;
892 -> 893 ;
894 [label="bookshop <= 0.003\ngini = 0.142\nsamples = 13\nvalue = [12, 1]\nclass = female"] ;
892 -> 894 ;
895 [label="gini = 0.0\nsamples = 12\nvalue = [12, 0]\nclass = female"] ;
894 -> 895 ;
896 [label="gini = 0.0\nsamples = 1\nvalue = [0, 1]\nclass = male"] ;
894 -> 896 ;
897 [label="puck <= 0.0\ngini = 0.497\nsamples = 132\nvalue = [71, 61]\nclass = female"] ;
857 -> 897 ;
898 [label="grille <= 0.0\ngini = 0.314\nsamples = 41\nvalue = [33, 8]\nclass = female"] ;
897 -> 898 ;
899 [label="diaper <= 0.005\ngini = 0.229\nsamples = 38\nvalue = [33, 5]\nclass = female"] ;
898 -> 899 ;
900 [label="brain_coral <= 0.0\ngini = 0.153\nsamples = 36\nvalue = [33, 3]\nclass = female"] ;
899 -> 900 ;
901 [label="ladybug <= 0.0\ngini = 0.057\nsamples = 34\nvalue = [33, 1]\nclass = female"] ;
900 -> 901 ;
902 [label="gini = 0.0\nsamples = 1\nvalue = [0, 1]\nclass = male"] ;
901 -> 902 ;
903 [label="gini = 0.0\nsamples = 33\nvalue = [33, 0]\nclass = female"] ;
901 -> 903 ;
904 [label="gini = 0.0\nsamples = 2\nvalue = [0, 2]\nclass = male"] ;
900 -> 904 ;
905 [label="gini = 0.0\nsamples = 2\nvalue = [0, 2]\nclass = male"] ;
899 -> 905 ;
906 [label="gini = 0.0\nsamples = 3\nvalue = [0, 3]\nclass = male"] ;
898 -> 906 ;
907 [label="cup <= 0.0\ngini = 0.486\nsamples = 91\nvalue = [38, 53]\nclass = male"] ;
897 -> 907 ;
908 [label="Lakeland_terrier <= 0.0\ngini = 0.185\nsamples = 29\nvalue = [3, 26]\nclass = male"] ;
907 -> 908 ;
909 [label="sarong <= 0.002\ngini = 0.375\nsamples = 4\nvalue = [3, 1]\nclass = female"] ;
908 -> 909 ;
910 [label="gini = 0.0\nsamples = 3\nvalue = [3, 0]\nclass = female"] ;
909 -> 910 ;
911 [label="gini = 0.0\nsamples = 1\nvalue = [0, 1]\nclass = male"] ;
909 -> 911 ;
912 [label="gini = 0.0\nsamples = 25\nvalue = [0, 25]\nclass = male"] ;
908 -> 912 ;
913 [label="football_helmet <= 0.002\ngini = 0.492\nsamples = 62\nvalue = [35, 27]\nclass = female"] ;
907 -> 913 ;
914 [label="acoustic_guitar <= 0.001\ngini = 0.449\nsamples = 53\nvalue = [35, 18]\nclass = female"] ;
913 -> 914 ;
915 [label="Bedlington_terrier <= 0.0\ngini = 0.351\nsamples = 44\nvalue = [34, 10]\nclass = female"] ;
914 -> 915 ;
916 [label="water_tower <= 0.001\ngini = 0.157\nsamples = 35\nvalue = [32, 3]\nclass = female"] ;
915 -> 916 ;
917 [label="gini = 0.0\nsamples = 32\nvalue = [32, 0]\nclass = female"] ;
916 -> 917 ;
918 [label="gini = 0.0\nsamples = 3\nvalue = [0, 3]\nclass = male"] ;
916 -> 918 ;
919 [label="yurt <= 0.0\ngini = 0.346\nsamples = 9\nvalue = [2, 7]\nclass = male"] ;
915 -> 919 ;
920 [label="gini = 0.0\nsamples = 7\nvalue = [0, 7]\nclass = male"] ;
919 -> 920 ;
921 [label="gini = 0.0\nsamples = 2\nvalue = [2, 0]\nclass = female"] ;
919 -> 921 ;
922 [label="great_white_shark <= 0.0\ngini = 0.198\nsamples = 9\nvalue = [1, 8]\nclass = male"] ;
914 -> 922 ;
923 [label="gini = 0.0\nsamples = 8\nvalue = [0, 8]\nclass = male"] ;
922 -> 923 ;
924 [label="gini = 0.0\nsamples = 1\nvalue = [1, 0]\nclass = female"] ;
922 -> 924 ;
925 [label="gini = 0.0\nsamples = 9\nvalue = [0, 9]\nclass = male"] ;
913 -> 925 ;
926 [label="suit <= 0.012\ngini = 0.364\nsamples = 1467\nvalue = [1116, 351]\nclass = female"] ;
692 -> 926 ;
927 [label="hair_slide <= 0.0\ngini = 0.302\nsamples = 1115\nvalue = [908, 207]\nclass = female"] ;
926 -> 927 ;
928 [label="maillot <= 0.0\ngini = 0.438\nsamples = 339\nvalue = [229, 110]\nclass = female"] ;
927 -> 928 ;
929 [label="paddle <= 0.0\ngini = 0.497\nsamples = 98\nvalue = [45, 53]\nclass = male"] ;
928 -> 929 ;
930 [label="Crock_Pot <= 0.0\ngini = 0.427\nsamples = 55\nvalue = [38, 17]\nclass = female"] ;
929 -> 930 ;
931 [label="gini = 0.0\nsamples = 7\nvalue = [0, 7]\nclass = male"] ;
930 -> 931 ;
932 [label="hotdog <= 0.0\ngini = 0.33\nsamples = 48\nvalue = [38, 10]\nclass = female"] ;
930 -> 932 ;
933 [label="whiskey_jug <= 0.001\ngini = 0.061\nsamples = 32\nvalue = [31, 1]\nclass = female"] ;
932 -> 933 ;
934 [label="gini = 0.0\nsamples = 31\nvalue = [31, 0]\nclass = female"] ;
933 -> 934 ;
935 [label="gini = 0.0\nsamples = 1\nvalue = [0, 1]\nclass = male"] ;
933 -> 935 ;
936 [label="wardrobe <= 0.001\ngini = 0.492\nsamples = 16\nvalue = [7, 9]\nclass = male"] ;
932 -> 936 ;
937 [label="entertainment_center <= 0.0\ngini = 0.346\nsamples = 9\nvalue = [7, 2]\nclass = female"] ;
936 -> 937 ;
938 [label="gini = 0.0\nsamples = 2\nvalue = [0, 2]\nclass = male"] ;
937 -> 938 ;
939 [label="gini = 0.0\nsamples = 7\nvalue = [7, 0]\nclass = female"] ;
937 -> 939 ;
940 [label="gini = 0.0\nsamples = 7\nvalue = [0, 7]\nclass = male"] ;
936 -> 940 ;
941 [label="proboscis_monkey <= 0.0\ngini = 0.273\nsamples = 43\nvalue = [7, 36]\nclass = male"] ;
929 -> 941 ;
942 [label="Labrador_retriever <= 0.0\ngini = 0.059\nsamples = 33\nvalue = [1, 32]\nclass = male"] ;
941 -> 942 ;
943 [label="gini = 0.0\nsamples = 1\nvalue = [1, 0]\nclass = female"] ;
942 -> 943 ;
944 [label="gini = 0.0\nsamples = 32\nvalue = [0, 32]\nclass = male"] ;
942 -> 944 ;
945 [label="feather_boa <= 0.001\ngini = 0.48\nsamples = 10\nvalue = [6, 4]\nclass = female"] ;
941 -> 945 ;
946 [label="gini = 0.0\nsamples = 4\nvalue = [0, 4]\nclass = male"] ;
945 -> 946 ;
947 [label="gini = 0.0\nsamples = 6\nvalue = [6, 0]\nclass = female"] ;
945 -> 947 ;
948 [label="ballplayer <= 0.0\ngini = 0.361\nsamples = 241\nvalue = [184, 57]\nclass = female"] ;
928 -> 948 ;
949 [label="white_wolf <= 0.0\ngini = 0.181\nsamples = 109\nvalue = [98, 11]\nclass = female"] ;
948 -> 949 ;
950 [label="horse_cart <= 0.0\ngini = 0.126\nsamples = 104\nvalue = [97, 7]\nclass = female"] ;
949 -> 950 ;
951 [label="sock <= 0.008\ngini = 0.078\nsamples = 99\nvalue = [95, 4]\nclass = female"] ;
950 -> 951 ;
952 [label="neck_brace <= 0.023\ngini = 0.041\nsamples = 96\nvalue = [94, 2]\nclass = female"] ;
951 -> 952 ;
953 [label="gini = 0.0\nsamples = 93\nvalue = [93, 0]\nclass = female"] ;
952 -> 953 ;
954 [label="mosque <= 0.0\ngini = 0.444\nsamples = 3\nvalue = [1, 2]\nclass = male"] ;
952 -> 954 ;
955 [label="gini = 0.0\nsamples = 1\nvalue = [1, 0]\nclass = female"] ;
954 -> 955 ;
956 [label="gini = 0.0\nsamples = 2\nvalue = [0, 2]\nclass = male"] ;
954 -> 956 ;
957 [label="totem_pole <= 0.0\ngini = 0.444\nsamples = 3\nvalue = [1, 2]\nclass = male"] ;
951 -> 957 ;
958 [label="gini = 0.0\nsamples = 2\nvalue = [0, 2]\nclass = male"] ;
957 -> 958 ;
959 [label="gini = 0.0\nsamples = 1\nvalue = [1, 0]\nclass = female"] ;
957 -> 959 ;
960 [label="custard_apple <= 0.0\ngini = 0.48\nsamples = 5\nvalue = [2, 3]\nclass = male"] ;
950 -> 960 ;
961 [label="gini = 0.0\nsamples = 2\nvalue = [2, 0]\nclass = female"] ;
960 -> 961 ;
962 [label="gini = 0.0\nsamples = 3\nvalue = [0, 3]\nclass = male"] ;
960 -> 962 ;
963 [label="soccer_ball <= 0.0\ngini = 0.32\nsamples = 5\nvalue = [1, 4]\nclass = male"] ;
949 -> 963 ;
964 [label="gini = 0.0\nsamples = 4\nvalue = [0, 4]\nclass = male"] ;
963 -> 964 ;
965 [label="gini = 0.0\nsamples = 1\nvalue = [1, 0]\nclass = female"] ;
963 -> 965 ;
966 [label="black_stork <= 0.0\ngini = 0.454\nsamples = 132\nvalue = [86, 46]\nclass = female"] ;
948 -> 966 ;
967 [label="yellow_lady's_slipper <= 0.0\ngini = 0.49\nsamples = 49\nvalue = [21, 28]\nclass = male"] ;
966 -> 967 ;
968 [label="toucan <= 0.0\ngini = 0.413\nsamples = 24\nvalue = [17, 7]\nclass = female"] ;
967 -> 968 ;
969 [label="tench <= 0.0\ngini = 0.346\nsamples = 9\nvalue = [2, 7]\nclass = male"] ;
968 -> 969 ;
970 [label="gini = 0.0\nsamples = 7\nvalue = [0, 7]\nclass = male"] ;
969 -> 970 ;
971 [label="gini = 0.0\nsamples = 2\nvalue = [2, 0]\nclass = female"] ;
969 -> 971 ;
972 [label="gini = 0.0\nsamples = 15\nvalue = [15, 0]\nclass = female"] ;
968 -> 972 ;
973 [label="macaw <= 0.0\ngini = 0.269\nsamples = 25\nvalue = [4, 21]\nclass = male"] ;
967 -> 973 ;
974 [label="iron <= 0.012\ngini = 0.087\nsamples = 22\nvalue = [1, 21]\nclass = male"] ;
973 -> 974 ;
975 [label="gini = 0.0\nsamples = 21\nvalue = [0, 21]\nclass = male"] ;
974 -> 975 ;
976 [label="gini = 0.0\nsamples = 1\nvalue = [1, 0]\nclass = female"] ;
974 -> 976 ;
977 [label="gini = 0.0\nsamples = 3\nvalue = [3, 0]\nclass = female"] ;
973 -> 977 ;
978 [label="stole <= 0.001\ngini = 0.34\nsamples = 83\nvalue = [65, 18]\nclass = female"] ;
966 -> 978 ;
979 [label="guacamole <= 0.0\ngini = 0.494\nsamples = 18\nvalue = [8, 10]\nclass = male"] ;
978 -> 979 ;
980 [label="conch <= 0.0\ngini = 0.32\nsamples = 10\nvalue = [8, 2]\nclass = female"] ;
979 -> 980 ;
981 [label="gini = 0.0\nsamples = 8\nvalue = [8, 0]\nclass = female"] ;
980 -> 981 ;
982 [label="gini = 0.0\nsamples = 2\nvalue = [0, 2]\nclass = male"] ;
980 -> 982 ;
983 [label="gini = 0.0\nsamples = 8\nvalue = [0, 8]\nclass = male"] ;
979 -> 983 ;
984 [label="cowboy_boot <= 0.003\ngini = 0.216\nsamples = 65\nvalue = [57, 8]\nclass = female"] ;
978 -> 984 ;
985 [label="drumstick <= 0.009\ngini = 0.15\nsamples = 61\nvalue = [56, 5]\nclass = female"] ;
984 -> 985 ;
986 [label="flagpole <= 0.011\ngini = 0.097\nsamples = 59\nvalue = [56, 3]\nclass = female"] ;
985 -> 986 ;
987 [label="harp <= 0.015\ngini = 0.034\nsamples = 57\nvalue = [56, 1]\nclass = female"] ;
986 -> 987 ;
988 [label="gini = 0.0\nsamples = 56\nvalue = [56, 0]\nclass = female"] ;
987 -> 988 ;
989 [label="gini = 0.0\nsamples = 1\nvalue = [0, 1]\nclass = male"] ;
987 -> 989 ;
990 [label="gini = 0.0\nsamples = 2\nvalue = [0, 2]\nclass = male"] ;
986 -> 990 ;
991 [label="gini = 0.0\nsamples = 2\nvalue = [0, 2]\nclass = male"] ;
985 -> 991 ;
992 [label="kuvasz <= 0.0\ngini = 0.375\nsamples = 4\nvalue = [1, 3]\nclass = male"] ;
984 -> 992 ;
993 [label="gini = 0.0\nsamples = 3\nvalue = [0, 3]\nclass = male"] ;
992 -> 993 ;
994 [label="gini = 0.0\nsamples = 1\nvalue = [1, 0]\nclass = female"] ;
992 -> 994 ;
995 [label="reflex_camera <= 0.003\ngini = 0.219\nsamples = 776\nvalue = [679, 97]\nclass = female"] ;
927 -> 995 ;
996 [label="hair_spray <= 0.003\ngini = 0.209\nsamples = 769\nvalue = [678, 91]\nclass = female"] ;
995 -> 996 ;
997 [label="football_helmet <= 0.0\ngini = 0.366\nsamples = 145\nvalue = [110, 35]\nclass = female"] ;
996 -> 997 ;
998 [label="microphone <= 0.003\ngini = 0.235\nsamples = 103\nvalue = [89, 14]\nclass = female"] ;
997 -> 998 ;
999 [label="king_penguin <= 0.0\ngini = 0.145\nsamples = 89\nvalue = [82, 7]\nclass = female"] ;
998 -> 999 ;
1000 [label="miniskirt <= 0.075\ngini = 0.09\nsamples = 85\nvalue = [81, 4]\nclass = female"] ;
999 -> 1000 ;
1001 [label="stupa <= 0.008\ngini = 0.047\nsamples = 83\nvalue = [81, 2]\nclass = female"] ;
1000 -> 1001 ;
1002 [label="gini = 0.0\nsamples = 81\nvalue = [81, 0]\nclass = female"] ;
1001 -> 1002 ;
1003 [label="gini = 0.0\nsamples = 2\nvalue = [0, 2]\nclass = male"] ;
1001 -> 1003 ;
1004 [label="gini = 0.0\nsamples = 2\nvalue = [0, 2]\nclass = male"] ;
1000 -> 1004 ;
1005 [label="barrow <= 0.0\ngini = 0.375\nsamples = 4\nvalue = [1, 3]\nclass = male"] ;
999 -> 1005 ;
1006 [label="gini = 0.0\nsamples = 1\nvalue = [1, 0]\nclass = female"] ;
1005 -> 1006 ;
1007 [label="gini = 0.0\nsamples = 3\nvalue = [0, 3]\nclass = male"] ;
1005 -> 1007 ;
1008 [label="cup <= 0.0\ngini = 0.5\nsamples = 14\nvalue = [7, 7]\nclass = female"] ;
998 -> 1008 ;
1009 [label="Petri_dish <= 0.0\ngini = 0.219\nsamples = 8\nvalue = [7, 1]\nclass = female"] ;
1008 -> 1009 ;
1010 [label="gini = 0.0\nsamples = 7\nvalue = [7, 0]\nclass = female"] ;
1009 -> 1010 ;
1011 [label="gini = 0.0\nsamples = 1\nvalue = [0, 1]\nclass = male"] ;
1009 -> 1011 ;
1012 [label="gini = 0.0\nsamples = 6\nvalue = [0, 6]\nclass = male"] ;
1008 -> 1012 ;
1013 [label="affenpinscher <= 0.0\ngini = 0.5\nsamples = 42\nvalue = [21, 21]\nclass = female"] ;
997 -> 1013 ;
1014 [label="hay <= 0.0\ngini = 0.278\nsamples = 18\nvalue = [3, 15]\nclass = male"] ;
1013 -> 1014 ;
1015 [label="gini = 0.0\nsamples = 15\nvalue = [0, 15]\nclass = male"] ;
1014 -> 1015 ;
1016 [label="gini = 0.0\nsamples = 3\nvalue = [3, 0]\nclass = female"] ;
1014 -> 1016 ;
1017 [label="brown_bear <= 0.0\ngini = 0.375\nsamples = 24\nvalue = [18, 6]\nclass = female"] ;
1013 -> 1017 ;
1018 [label="book_jacket <= 0.001\ngini = 0.18\nsamples = 20\nvalue = [18, 2]\nclass = female"] ;
1017 -> 1018 ;
1019 [label="gini = 0.0\nsamples = 2\nvalue = [0, 2]\nclass = male"] ;
1018 -> 1019 ;
1020 [label="gini = 0.0\nsamples = 18\nvalue = [18, 0]\nclass = female"] ;
1018 -> 1020 ;
1021 [label="gini = 0.0\nsamples = 4\nvalue = [0, 4]\nclass = male"] ;
1017 -> 1021 ;
1022 [label="tench <= 0.0\ngini = 0.163\nsamples = 624\nvalue = [568, 56]\nclass = female"] ;
996 -> 1022 ;
1023 [label="entertainment_center <= 0.002\ngini = 0.122\nsamples = 535\nvalue = [500, 35]\nclass = female"] ;
1022 -> 1023 ;
1024 [label="organ <= 0.0\ngini = 0.11\nsamples = 529\nvalue = [498, 31]\nclass = female"] ;
1023 -> 1024 ;
1025 [label="gini = 0.0\nsamples = 2\nvalue = [0, 2]\nclass = male"] ;
1024 -> 1025 ;
1026 [label="wall_clock <= 0.053\ngini = 0.104\nsamples = 527\nvalue = [498, 29]\nclass = female"] ;
1024 -> 1026 ;
1027 [label="coral_fungus <= 0.004\ngini = 0.098\nsamples = 525\nvalue = [498, 27]\nclass = female"] ;
1026 -> 1027 ;
1028 [label="isopod <= 0.001\ngini = 0.091\nsamples = 523\nvalue = [498, 25]\nclass = female"] ;
1027 -> 1028 ;
1029 [label="ambulance <= 0.007\ngini = 0.075\nsamples = 510\nvalue = [490, 20]\nclass = female"] ;
1028 -> 1029 ;
1030 [label="parking_meter <= 0.008\ngini = 0.065\nsamples = 504\nvalue = [487, 17]\nclass = female"] ;
1029 -> 1030 ;
1031 [label="tape_player <= 0.0\ngini = 0.062\nsamples = 503\nvalue = [487, 16]\nclass = female"] ;
1030 -> 1031 ;
1032 [label="gini = 0.0\nsamples = 1\nvalue = [0, 1]\nclass = male"] ;
1031 -> 1032 ;
1033 [label="promontory <= 0.075\ngini = 0.058\nsamples = 502\nvalue = [487, 15]\nclass = female"] ;
1031 -> 1033 ;
1034 [label="groom <= 0.091\ngini = 0.054\nsamples = 501\nvalue = [487, 14]\nclass = female"] ;
1033 -> 1034 ;
1035 [label="American_coot <= 0.001\ngini = 0.051\nsamples = 500\nvalue = [487, 13]\nclass = female"] ;
1034 -> 1035 ;
1036 [label="matchstick <= 0.077\ngini = 0.047\nsamples = 499\nvalue = [487, 12]\nclass = female"] ;
1035 -> 1036 ;
1037 [label="king_penguin <= 0.009\ngini = 0.043\nsamples = 498\nvalue = [487, 11]\nclass = female"] ;
1036 -> 1037 ;
1038 [label="pirate <= 0.017\ngini = 0.039\nsamples = 497\nvalue = [487, 10]\nclass = female"] ;
1037 -> 1038 ;
